{"version": "0.5.4", "metadata": {"date": {"year": 2025, "month": 2, "day": 10, "hour": 2, "minute": 30, "second": 7}, "loudness": -22.110252380371094, "gain": 0.27162925373013347, "training": {"settings": {"ignore_checks": false}, "data": {"latency": {"manual": null, "calibration": {"algorithm_version": 1, "delays": [127], "safety_factor": 1, "recommended": 126, "warnings": {"matches_lookahead": false, "disagreement_too_high": false}}}, "checks": {"version": 3, "passed": true}}, "validation_esr": 0.017148754402230078}}, "architecture": "WaveNet", "config": {"layers": [{"input_size": 1, "condition_size": 1, "head_size": 8, "channels": 16, "kernel_size": 3, "dilations": [1, 2, 4, 8, 16, 32, 64, 128, 256, 512], "activation": "Tanh", "gated": false, "head_bias": false}, {"input_size": 16, "condition_size": 1, "head_size": 1, "channels": 8, "kernel_size": 3, "dilations": [1, 2, 4, 8, 16, 32, 64, 128, 256, 512], "activation": "Tanh", "gated": false, "head_bias": true}], "head": null, "head_scale": 0.02}, "weights": [-0.00026693593827076256, 0.2643653154373169, -0.6292514801025391, -0.5858815312385559, -0.00010792969987960532, 0.18628209829330444, 0.0006562104681506753, 0.45351818203926086, -0.012243553064763546, 0.00025487918173894286, -0.30573663115501404, 0.0006620092317461967, -0.7832230925559998, -0.475149005651474, -0.15410825610160828, 0.000846413429826498, -0.06094203516840935, 0.044459953904151917, -0.22142796218395233, -0.12565632164478302, 0.04523930326104164, -0.013839535415172577, 0.033843085169792175, 0.12927785515785217, 0.10652510076761246, 0.07766899466514587, 0.1466265171766281, -0.0031534202862530947, -0.05048791319131851, -0.03725837916135788, 0.05902479216456413, 0.09814182668924332, -0.07954061031341553, -0.16632305085659027, -0.08669431507587433, -0.11192016303539276, -0.020369602367281914, 0.06518091261386871, 0.04936080798506737, -0.05937817692756653, 0.0340292789041996, -0.14990700781345367, 0.10277008265256882, -0.170516699552536, -0.046250633895397186, -0.17034566402435303, 0.1281999945640564, 0.0875571221113205, 0.04193086177110672, 0.046514302492141724, 0.048345811665058136, 0.2564244866371155, 0.12485278397798538, 0.04097898676991463, 0.23010624945163727, -0.024143030866980553, 0.04162516072392464, 0.01906675100326538, -0.05888398364186287, -0.07332248240709305, 0.18732117116451263, 0.05583104491233826, -0.10365056991577148, -0.05603465437889099, 0.16442155838012695, -0.053321145474910736, -0.04453037679195404, 0.0015772522892802954, -0.01004678476601839, 0.23404084146022797, -0.08390188217163086, 0.0636545717716217, -0.05278724431991577, 0.1495056450366974, 0.24081481993198395, 0.024761458858847618, 0.011489621363580227, -0.0700010359287262, -0.0056338380090892315, -0.08742302656173706, -0.21547935903072357, 0.26684805750846863, -0.01762366108596325, -0.1079091727733612, 0.018258098512887955, -0.05124836787581444, -0.1358470469713211, 0.039256803691387177, 0.07642626017332077, -0.08098503202199936, -0.06754914671182632, 0.03598208352923393, 0.12460839003324509, 0.05192212015390396, -0.14471621811389923, 0.0015820437110960484, -0.06854870170354843, 0.040395770221948624, -0.09354835748672485, -0.12753288447856903, 0.17038880288600922, 0.2187223732471466, -0.16391804814338684, -0.009285840205848217, -0.025230010971426964, -0.1066238284111023, -0.10560037940740585, -0.022765114903450012, -0.12987954914569855, -0.047298215329647064, -0.1487714946269989, 0.05222588777542114, -0.08965419232845306, 0.048370663076639175, 0.13047198951244354, -0.12636937201023102, 0.038442984223365784, -0.11833307147026062, 0.02873391844332218, -0.05747783184051514, 0.19587431848049164, 0.015089096501469612, -0.15965959429740906, 0.2024281620979309, -0.11061063408851624, -0.09910468757152557, 0.012651738710701466, -0.10818330943584442, 0.005598863121122122, -0.28843456506729126, -0.037054359912872314, -0.011764266528189182, -0.10872684419155121, -0.016131028532981873, 0.1895226389169693, -0.15177255868911743, 0.02370183914899826, 0.017294179648160934, 0.1774093359708786, 0.0885205790400505, 0.053961172699928284, 0.03849724307656288, 0.17328178882598877, -0.08143051713705063, 0.04285848140716553, -0.08037206530570984, 0.08782902359962463, 0.03570645675063133, -0.0691089853644371, -0.20573437213897705, -0.0025727711617946625, -0.11204425990581512, -0.11582551896572113, 0.2149343639612198, 0.1083327978849411, -0.20340122282505035, 0.24185246229171753, -0.07797769457101822, -0.04551384970545769, -0.16181567311286926, -0.06774833798408508, 0.05845791846513748, -0.09137765318155289, 0.021970773115754128, -0.03240841254591942, 0.08898918330669403, -0.21249276399612427, 0.04312934726476669, -0.22165876626968384, -0.16030912101268768, 0.12185493111610413, -0.14622774720191956, 0.04176824539899826, 0.10951977968215942, -0.1695023477077484, 0.19756552577018738, -0.028392264619469643, 0.03823905438184738, 0.03874402493238449, 0.0031216936185956, -0.04370909556746483, 0.11262211948633194, 0.10873380303382874, 0.1334829479455948, -0.05991385877132416, 0.14378923177719116, -0.07127967476844788, 0.12556327879428864, -0.23963388800621033, 0.23978720605373383, -0.010120250284671783, 0.09220484644174576, -0.20396028459072113, -0.10818487405776978, -0.0041872914880514145, -0.15184235572814941, -0.23938262462615967, 0.04122116044163704, -0.17308112978935242, -0.15233705937862396, 0.002131358254700899, 0.00019654260540846735, -0.23042526841163635, -0.0930936336517334, -0.19528165459632874, 0.13909320533275604, -0.09744176268577576, 0.1842341423034668, -0.005379988346248865, 0.01747879944741726, -0.06467445194721222, 0.06786581873893738, 0.13409148156642914, -0.13057588040828705, -0.09293317049741745, -0.11494676023721695, -0.002074604853987694, -0.16990165412425995, -0.01486567035317421, -0.012820231728255749, -0.051295239478349686, 0.06516934931278229, 0.02796574868261814, 0.05939081311225891, -0.029383718967437744, -0.06718983501195908, -0.0533660426735878, 0.004344973247498274, -0.057981666177511215, 0.06800942867994308, 0.12923628091812134, 0.012787101790308952, -0.047865163534879684, 0.11550543457269669, 0.2209913730621338, -0.008101810701191425, 0.0724903866648674, -0.03762507066130638, -0.12157107144594193, -0.06902718544006348, 0.19037921726703644, 0.03926263004541397, -0.01220809668302536, 0.007605169899761677, -0.025161663070321083, -0.27747705578804016, 0.20699766278266907, -0.2104199230670929, -0.1267601102590561, 0.08118429034948349, -0.13979178667068481, -0.08533189445734024, 0.24180424213409424, 0.0656869187951088, -0.005063253920525312, -0.05823756754398346, -0.14562073349952698, 0.031490225344896317, -0.03337041661143303, -0.12315721064805984, 0.07115091383457184, -0.05671820044517517, 0.10629468411207199, -0.06190331280231476, 0.2077266275882721, -0.01960390992462635, -0.21130135655403137, 0.19195502996444702, 0.1624465137720108, -0.030729006975889206, -0.04371887072920799, -0.12463957816362381, -0.00045150291407480836, -0.15523503720760345, -0.012872157618403435, -0.19107912480831146, 0.15161408483982086, -0.12397677451372147, 0.15001045167446136, -0.11009402573108673, 0.04617607966065407, -0.14960604906082153, 0.042391784489154816, 0.09221751242876053, 0.014574820175766945, 0.06483244150876999, 0.009544622153043747, -0.11111779510974884, 0.15681616961956024, 0.023853378370404243, -0.12304525077342987, 0.0809580460190773, 0.0707576721906662, -0.17955297231674194, 0.11553570628166199, -0.05724264681339264, -0.06818636506795883, 0.043663837015628815, 0.11017689108848572, -0.19146305322647095, 0.09801234304904938, 0.06561654061079025, -0.012524174526333809, -0.018118740990757942, 0.04014698415994644, -0.17079854011535645, 0.11157670617103577, 0.06621579825878143, 0.08587521314620972, -0.14388898015022278, -0.12109313905239105, -0.07029925286769867, 0.18836663663387299, -0.05642480403184891, 0.010332731530070305, 0.23091275990009308, -0.073774553835392, 0.02519289404153824, 0.1345548927783966, -0.020479433238506317, 0.0264737568795681, -0.14736022055149078, -0.09553079307079315, 0.015230901539325714, 0.019817333668470383, 0.13053716719150543, 0.1278975009918213, -0.11644119769334793, 0.08636948466300964, 0.004290470387786627, 0.043597202748060226, -0.11194513738155365, 0.022349439561367035, -0.009156961925327778, -0.07379990816116333, 0.025961820036172867, 0.2740003168582916, 0.12588588893413544, 0.16116195917129517, 0.15506210923194885, -0.040357913821935654, -0.10026155412197113, 0.25241461396217346, 0.07987628877162933, -0.1289168745279312, 0.26432088017463684, 0.08899226039648056, 0.054812394082546234, 0.050868965685367584, 0.0343564972281456, -0.06740590184926987, 0.009866394102573395, 0.09732063114643097, 0.06511111557483673, 0.1071758046746254, 0.12191838771104813, 0.08107629418373108, 0.13504208624362946, -0.15825432538986206, -0.11548065394163132, -0.15058517456054688, -0.20095619559288025, -0.261217325925827, 0.056248560547828674, 0.07103469222784042, 0.0897584781050682, 0.028819724917411804, -0.11074423044919968, 0.007856614887714386, -0.007715883664786816, -0.10985448956489563, 0.12948669493198395, -0.1174977645277977, -0.016382362693548203, 0.001799748046323657, -0.029101025313138962, 0.09728780388832092, 0.11528840661048889, 0.09315504878759384, 0.16246937215328217, 0.09620746970176697, 0.08443575352430344, 0.038302112370729446, 0.0050710528157651424, 0.03013385459780693, 0.11094972491264343, 0.07319706678390503, 0.01930679939687252, -0.11378125101327896, -0.08289743214845657, -0.04393770173192024, -0.08951497822999954, -0.22327163815498352, -0.13683705031871796, -0.14051668345928192, -0.020288754254579544, 0.06787025183439255, -0.014422289095818996, -0.08501949161291122, 0.05503825843334198, 0.06999509036540985, -0.07095057517290115, -0.06003662198781967, 0.21215951442718506, 0.15311913192272186, -0.1898120939731598, 0.06089472770690918, -0.0031317041721194983, 0.03570638224482536, 0.0030767202842980623, -0.1917499452829361, 0.06106509268283844, 0.06388203799724579, -0.051721446216106415, -0.0890282690525055, -0.002679518423974514, 0.03624022752046585, -0.14731059968471527, 0.0029923534020781517, 0.1463339775800705, 0.03338286280632019, -0.014524303376674652, 0.1140572652220726, -0.017384067177772522, 0.03009534254670143, -0.10911472886800766, 0.09551946818828583, -0.051727037876844406, -0.0893586128950119, 0.0021778217051178217, -0.15124113857746124, -0.036310825496912, 0.24378091096878052, -0.058547426015138626, -0.028321469202637672, -0.04371972009539604, -0.05100005120038986, -0.2257843315601349, 0.15396063029766083, -0.2058563232421875, -0.24537919461727142, -0.05437921732664108, -0.08131198585033417, 0.013057735748589039, -0.029828347265720367, 0.10864617675542831, -0.10078484565019608, -0.004912546370178461, 0.05008464679121971, -0.12117957323789597, 0.2780902087688446, 0.1407574862241745, 0.1973991096019745, 0.04179824888706207, -0.15861424803733826, 0.04763546586036682, 0.04480431228876114, 0.003373474348336458, -0.1852588653564453, -0.0069716209545731544, -0.17408834397792816, -0.054074835032224655, -0.01072760857641697, -0.08590429276227951, 0.08495721220970154, 0.013826260343194008, 0.022802311927080154, -0.021699432283639908, 0.06234841048717499, 0.015568291768431664, 0.12951239943504333, 0.1078096404671669, 0.04704922437667847, 0.021780909970402718, 0.14037489891052246, -0.1014653667807579, -0.1746048927307129, 0.0876791849732399, -0.11811037361621857, 0.014520509168505669, -0.0351160429418087, -0.10915070027112961, -0.0649501383304596, 0.05068587884306908, -0.0838775485754013, 0.03574472293257713, 0.1225028932094574, 0.01705353893339634, -0.06255439668893814, -0.009958112612366676, -0.06866241991519928, -0.027686068788170815, 0.11537212133407593, -0.06726566702127457, 0.16133937239646912, 0.014888720586895943, 0.0068464516662061214, -0.11378508806228638, 0.14591482281684875, 0.09826373308897018, -0.13827741146087646, 0.18126367032527924, 0.09871340543031693, 0.09600497037172318, 0.031042611226439476, -0.0474688783288002, 0.054483383893966675, -0.025032613426446915, -0.04428023099899292, 0.05792737752199173, -0.06949544697999954, 0.0764317661523819, -0.038042809814214706, 0.05186893790960312, 0.012473843060433865, -0.09273490309715271, 0.1688329428434372, -0.014915190637111664, 0.07351578772068024, 0.07133390009403229, 0.03365611657500267, -0.0902457907795906, -0.060295142233371735, -0.1122533529996872, -0.08624012023210526, -0.024704119190573692, 0.143071249127388, -0.04269230365753174, -0.10785200446844101, -0.05075209587812424, 0.09004490077495575, 0.10760155320167542, -0.07634484767913818, -0.10433536022901535, -0.19360606372356415, 0.02786879613995552, -0.028371654450893402, -0.180047407746315, -0.03713405504822731, 0.030445044860243797, -0.1709345430135727, -0.004331266973167658, 0.018503965809941292, -0.0036668817047029734, -0.09261084347963333, 0.22237396240234375, -0.034974802285432816, -0.05604718625545502, -0.07068805396556854, 0.19283120334148407, -0.08259428292512894, -0.11651196330785751, 0.0863683894276619, -0.03583983704447746, 0.04960371553897858, -0.06792371720075607, 0.028993792831897736, -0.02883143723011017, 0.030795993283391, -0.03747909516096115, -0.16144786775112152, -0.026013463735580444, 0.03626956045627594, 0.07870977371931076, -0.07765772193670273, 0.0817190408706665, -0.05575979873538017, 0.029117241501808167, 0.12806497514247894, 0.055128343403339386, 0.051688794046640396, -0.0075867450796067715, -0.04751012101769447, -0.061872415244579315, 0.0303057748824358, 0.13905002176761627, -0.11538352817296982, -0.06894148141145706, 0.03756432980298996, 0.10077224671840668, 0.015590970404446125, -0.09667056798934937, -0.18705864250659943, 0.08998114615678787, 0.010818827897310257, -0.12992727756500244, 0.07900684326887131, 0.07752151042222977, 0.05604023113846779, 0.056127842515707016, -0.021558193489909172, -0.04219505563378334, -0.18093115091323853, 0.10980810225009918, 0.008787045255303383, 0.01013797614723444, -0.19407537579536438, 0.11878599971532822, 0.1869295835494995, 0.2151380181312561, -0.11805178225040436, -0.0020807411056011915, -0.014822258614003658, 0.14609678089618683, -0.046411819756031036, -0.03124072402715683, 0.11961881071329117, -0.0859176367521286, -0.12091492116451263, 0.015671469271183014, -0.11675761640071869, -0.09921116381883621, 0.00015398769755847752, -0.11188306659460068, -0.029260851442813873, 0.12064991891384125, 0.09902553260326385, -0.009796502068638802, 0.09198874235153198, -0.02629488706588745, -0.0527157187461853, 0.07407139986753464, 0.057765886187553406, -0.0766339972615242, -0.06980713456869125, -0.0766657367348671, 0.07164079695940018, -0.0014833660097792745, -0.07438653707504272, 0.08079304546117783, 0.10228496044874191, 0.08685917407274246, 0.1277088224887848, 0.021064769476652145, 0.07860642671585083, 0.023804647848010063, -0.0725189670920372, -0.17086955904960632, -0.1749761551618576, 0.0638151541352272, -0.04129059240221977, 0.024968424811959267, 0.06722857058048248, 0.13639216125011444, -0.28612029552459717, 0.21730752289295197, -0.2145851105451584, 0.3262474238872528, -0.20674999058246613, -0.16509002447128296, 0.2852170169353485, -0.1435299664735794, -0.025786306709051132, 0.022291067987680435, -0.11605595052242279, 0.08826538175344467, -0.14216721057891846, 0.25682979822158813, -0.10858426988124847, 0.09027855098247528, 0.033450715243816376, 0.0990491732954979, -0.09445719420909882, -0.022086268290877342, -0.11632712930440903, 0.21055717766284943, -0.11331585794687271, 0.20307300984859467, -0.0777277871966362, 0.09247687458992004, -0.2974073588848114, 0.15954628586769104, -0.15068741142749786, -0.07301362603902817, 0.07631739974021912, 0.0878085196018219, -0.14779135584831238, 0.20711669325828552, 0.01607763022184372, -0.1725524365901947, 0.3293278217315674, -0.1834656149148941, -0.16698382794857025, 0.165438711643219, -0.04784689471125603, 0.1064273938536644, -0.08563560992479324, -0.14541557431221008, 0.09034235030412674, 0.029023198410868645, -0.04259255900979042, -0.022577328607439995, 0.17339369654655457, 0.081601582467556, -0.05263351649045944, -0.23194026947021484, 0.16430798172950745, -0.1729339063167572, -0.061693985015153885, 0.08092237263917923, -0.0819636806845665, -0.030525466427206993, -0.09415855258703232, 0.06340218335390091, -0.030426297336816788, -0.1041036918759346, 0.017665395513176918, 0.0334835909307003, 0.006340429186820984, 0.15401814877986908, 0.07374930381774902, -0.1302982121706009, -0.1428949534893036, -0.10490798205137253, 0.25320640206336975, 0.02551920898258686, 0.0476740300655365, 0.06130138039588928, 0.06037510931491852, 0.046949587762355804, 0.21222326159477234, -0.12753354012966156, 0.05226726457476616, -0.0710064172744751, -0.15310950577259064, -0.06623498350381851, 0.19336619973182678, -0.17775768041610718, -0.004987250082194805, -0.013726890087127686, -0.06553478538990021, 0.04303650185465813, 0.045954857021570206, -0.055758677423000336, -0.09906741231679916, 0.07433000206947327, -0.03529795631766319, -0.06514213979244232, 0.0594496876001358, -0.20831824839115143, -0.19106927514076233, 0.04314151033759117, 0.2162800133228302, 0.05210485681891441, 0.020234527066349983, 0.22858713567256927, 0.18686705827713013, -0.11668036133050919, 0.0659366101026535, 0.0011934478534385562, -0.07607408612966537, -0.06652801483869553, 0.05325290188193321, 0.19976960122585297, -0.0005239497404545546, 0.01567918062210083, -0.07675335556268692, 0.009443836286664009, -0.14800263941287994, -0.05517888069152832, 0.09761445969343185, 0.05370317026972771, -0.20449703931808472, 0.021089991554617882, 0.06620857119560242, -0.1664080023765564, 0.03978389501571655, 0.19474588334560394, -0.19164741039276123, 0.06036859750747681, 0.00403788173571229, -0.09225811809301376, 0.18884238600730896, 0.1725388765335083, 0.051178041845560074, 0.009012619033455849, 0.23204989731311798, -0.12840275466442108, 0.21814392507076263, -0.07370726019144058, -0.1919408142566681, 0.007048734463751316, -0.003679020330309868, 0.023425888270139694, -0.04966326430439949, -0.12086072564125061, -0.07082187384366989, -0.05877360329031944, -0.018768969923257828, 0.07615729421377182, -0.005429452285170555, 0.0056454939767718315, 0.0770021378993988, 0.1322776973247528, -0.004403477534651756, 0.0018121561734005809, -0.008363166823983192, 0.020654266700148582, -0.05256623402237892, 0.028258362784981728, 0.30427128076553345, -0.33483269810676575, 0.67523592710495, -0.6259946227073669, -0.09070359170436859, 0.7607871294021606, 0.8674449324607849, -0.5065771341323853, 0.10930203646421432, 0.09305272251367569, -0.39023590087890625, -0.29182735085487366, 0.24751363694667816, -0.6259825229644775, 0.11743277311325073, 0.461620569229126, -0.038060106337070465, 0.27022746205329895, 0.05560071021318436, 0.06149395555257797, 0.18493549525737762, -0.09315644204616547, 0.1808755099773407, -0.10706139355897903, -0.06428781896829605, -0.06075107306241989, 0.1409233808517456, 0.08676520735025406, 0.11184404045343399, -0.1385825127363205, 0.1253138780593872, 0.03306517377495766, -0.04498777166008949, -0.15063220262527466, -0.3134448230266571, 0.052603017538785934, 0.0756981149315834, -0.14296111464500427, -0.14123934507369995, 0.1635541170835495, 0.003977882210165262, 0.22235514223575592, 0.0009680041112005711, 0.06567120552062988, 0.019706256687641144, -0.030548760667443275, 0.12767146527767181, 0.16889697313308716, -0.09572934359312057, 0.017180997878313065, 0.057719700038433075, 0.33211246132850647, -0.07901332527399063, -0.09573125839233398, 0.17355401813983917, -0.027765348553657532, -0.044203970581293106, -0.04216034710407257, 0.02195015549659729, -0.18930833041667938, 0.05878317728638649, 0.3414553999900818, 0.20103907585144043, -0.01708691380918026, 0.11518295109272003, -0.18714173138141632, -0.01585957035422325, -0.1409289538860321, -0.08233882486820221, 0.20120090246200562, 0.050891485065221786, -0.0868348702788353, -0.19893065094947815, 0.21311087906360626, 0.028335511684417725, 0.10083241760730743, 0.1374606490135193, 0.21603375673294067, -0.24973763525485992, 0.07933774590492249, -0.05404376983642578, -0.2657742500305176, -0.2742309272289276, -0.13526828587055206, 0.18028365075588226, 0.12735599279403687, -0.01596478559076786, -0.20810823142528534, 0.09424905478954315, 0.1550842672586441, -0.08671344816684723, 0.08121763914823532, 0.004525951575487852, 0.11560437083244324, -0.1396946907043457, 0.014453554525971413, -0.14822284877300262, -0.02499825321137905, 0.07942107319831848, 0.12526707351207733, 0.31341978907585144, 0.19999763369560242, 0.24515266716480255, 0.11285571753978729, 0.26078370213508606, -0.03300663083791733, -0.2578844428062439, -0.40033164620399475, 0.010194824077188969, -0.16778342425823212, 0.20742978155612946, -0.007787711918354034, 0.1373816281557083, 0.15006986260414124, 0.23407861590385437, 0.20404791831970215, -0.20969055593013763, -0.2467164248228073, 0.07302357256412506, -0.06165488809347153, 0.09570445120334625, -0.2601863741874695, -0.2193332016468048, -0.09284132719039917, 0.22333049774169922, -0.20030805468559265, 0.2203260064125061, -0.1300649642944336, 0.23903603851795197, 0.12753373384475708, 0.1226859912276268, -0.2129698097705841, -0.1732904314994812, 0.0619501918554306, 0.10261399298906326, 0.001572775887325406, 0.19935305416584015, -0.3013100028038025, 0.02605529874563217, -0.2223655730485916, 0.07560443878173828, -0.12830346822738647, -0.08932358771562576, 0.030811136588454247, -0.06805681437253952, 0.03696281462907791, -0.3056716322898865, -0.3345658779144287, -0.034703172743320465, -0.08709526807069778, -0.2488691657781601, -0.16085971891880035, -0.2282552570104599, -0.24954503774642944, -0.0397304929792881, -0.22000767290592194, 0.046114351600408554, -0.15299907326698303, -0.008706854656338692, 0.2000296711921692, -0.2370634824037552, -0.003121481044217944, 0.1991804838180542, -0.1978115439414978, -0.36333051323890686, 0.13782759010791779, 0.1601562798023224, -0.13214176893234253, 0.01685013622045517, 0.2539106607437134, 0.07861042767763138, 0.27711793780326843, 0.16287405788898468, 0.22912195324897766, -0.23767472803592682, 0.18245063722133636, 0.138605535030365, 0.3304857015609741, -0.366735577583313, 0.05161246657371521, -0.22849413752555847, -0.28373104333877563, -0.08887889236211777, -0.14530929923057556, -0.08384376019239426, -0.24042649567127228, -0.16965153813362122, -0.18306437134742737, -0.008941243402659893, 0.27197402715682983, -0.07969507575035095, 0.42161038517951965, 0.05124867334961891, -0.12191154062747955, 0.21284440159797668, -0.004294036887586117, 0.00890105776488781, 0.06657294183969498, 0.043342139571905136, -0.07723666727542877, -0.027871236205101013, -0.11582054942846298, 0.2551473379135132, 0.12797920405864716, -0.029871530830860138, 0.12274130433797836, -0.23021644353866577, -0.13597466051578522, -0.07195986062288284, -0.030269375070929527, 0.22276318073272705, 0.1301119029521942, 0.031858719885349274, -0.025769716128706932, 0.09733473509550095, 0.07593514025211334, 0.1368221640586853, -0.00171749503351748, -0.07630326598882675, -0.08140575140714645, 0.1748148798942566, -0.18819062411785126, -0.09091237932443619, 0.21955782175064087, -0.02473810315132141, -0.1767224222421646, 0.05853244662284851, 0.22775045037269592, -0.17036449909210205, 0.2785007357597351, 0.2926924228668213, 0.04371759667992592, -0.12753410637378693, -0.0696893110871315, 0.16959315538406372, 0.3095387816429138, -0.16392548382282257, -0.15779711306095123, -0.16051313281059265, 0.2706305980682373, -0.14273937046527863, 0.20780996978282928, -0.008366209454834461, -0.20866219699382782, 0.10635671019554138, 0.1025480180978775, 0.14401660859584808, 0.21376065909862518, -0.24026651680469513, 0.11233905702829361, -0.0538054034113884, -0.07606109231710434, 0.04613763466477394, 0.14246921241283417, -0.12451737374067307, -0.0418267697095871, 0.09716077893972397, 0.06489972025156021, 0.18138521909713745, -0.16099604964256287, -0.10942667722702026, 0.2223731428384781, 0.09054355323314667, 0.18844562768936157, -0.06121059134602547, -0.109340138733387, -0.1472443789243698, -0.20138266682624817, 0.016815148293972015, 0.18812111020088196, 0.03285956382751465, -0.03594612330198288, 0.07273786514997482, -0.054439008235931396, 0.050796523690223694, -0.07227631658315659, -0.10564394295215607, -0.01325973216444254, 0.11485277861356735, 0.029934821650385857, 0.0004958267672918737, -0.08596046268939972, 0.03421003371477127, 0.005548036657273769, -0.0017502843402326107, -0.020710360258817673, -0.005602129269391298, 0.016129570081830025, -0.14995652437210083, -0.1509668529033661, 0.14282111823558807, 0.3317907750606537, 0.015027912333607674, 0.3148724436759949, 0.15767472982406616, -0.06460294872522354, -0.01286318525671959, -0.028588874265551567, 0.09964907914400101, 0.02489062026143074, -0.09247983247041702, -0.12484284490346909, -0.11273070424795151, -0.004279176704585552, 0.05357594043016434, 0.14130531251430511, -0.3185323476791382, -0.20762671530246735, -0.14206822216510773, -0.24853380024433136, 0.016446901485323906, 0.06933720409870148, -0.06716610491275787, -0.021325988695025444, -0.12417908757925034, -0.08901608735322952, 0.015970200300216675, -0.003493614261969924, 0.1047893613576889, -0.07758284360170364, -0.015215243212878704, -0.0020618003327399492, -0.03337441384792328, -0.15907663106918335, -0.09631113708019257, 0.16206347942352295, -0.11453535407781601, -0.23518909513950348, 0.11818475276231766, -0.2242385447025299, 0.06589360535144806, 0.00809129886329174, -0.11556762456893921, -0.11524877697229385, -0.15378054976463318, 0.0413164384663105, -0.04994465783238411, -0.030986670404672623, 0.06722062081098557, -0.1800137311220169, 0.07215888053178787, 0.15260706841945648, 0.08627024292945862, -0.07734783738851547, 0.17878220975399017, -0.023042621091008186, 0.09068668633699417, -0.16031980514526367, 0.09530875831842422, -0.11279676109552383, 0.10624498873949051, -0.20823520421981812, -0.2755659818649292, -0.02676115743815899, 0.1505194455385208, 0.03348400443792343, 0.026144837960600853, -0.11829803884029388, 0.123634934425354, -0.03178081288933754, -0.1426420360803604, 0.0758870393037796, -0.17697763442993164, 0.011190635152161121, 0.10618598014116287, -0.1940440833568573, 0.10775427520275116, 0.19205911457538605, -0.03512198477983475, 0.01208806037902832, -0.08470452576875687, -0.04442921653389931, 0.07921373844146729, -0.08022558689117432, 0.0041826507076621056, -0.006728494539856911, 0.08052582293748856, 0.062188856303691864, 0.0260588638484478, -0.12619294226169586, 0.007958083413541317, -0.07297950983047485, 0.09466502070426941, 0.00489263329654932, 0.20673589408397675, 0.16716447472572327, 0.12094873934984207, 0.20930662751197815, 0.08720897883176804, -0.22346480190753937, 0.09582772105932236, 0.15795931220054626, 0.02347523160278797, 0.08714881539344788, 0.005466162692755461, -0.022242579609155655, 0.058389823883771896, -0.20747652649879456, 0.04995456337928772, -0.2320176064968109, 0.07479855418205261, 0.05029640719294548, 0.00910109467804432, -0.09917722642421722, -0.04227064177393913, -0.14888601005077362, -0.19383761286735535, 0.0909101665019989, 0.023975251242518425, -0.09110324084758759, 0.08344526588916779, -0.04982434958219528, 0.03305848687887192, -0.10444500297307968, 0.07490750402212143, -0.09697260707616806, 0.16078875958919525, -0.03485337272286415, -0.05615374818444252, 0.33472466468811035, -0.028795035555958748, -0.03737206012010574, 0.07740473002195358, -0.07128222286701202, -0.12185152620077133, 0.05475672706961632, -0.03965860605239868, 0.14161507785320282, 0.18504628539085388, -0.19430305063724518, 0.19863565266132355, 0.2738592326641083, -0.07203647494316101, -0.04268601909279823, -0.21019072830677032, -0.01609310694038868, 0.1171281710267067, 0.10706894099712372, 0.06847435981035233, -0.3204386532306671, -0.32688838243484497, 0.13625183701515198, -0.041306715458631516, -0.004033171571791172, 0.009154592640697956, -0.10541906952857971, 0.08482855558395386, -0.15443967282772064, 0.30897653102874756, -0.04109106957912445, 0.1368810385465622, 0.12407005578279495, 0.2850082218647003, 0.037339165806770325, 0.16968461871147156, 0.06384781748056412, 0.21376246213912964, -0.28214380145072937, 0.11841040849685669, 0.28911375999450684, -0.11385205388069153, 0.13439889252185822, 0.2246769666671753, -0.3248307704925537, 0.09873262792825699, -0.0159356277436018, -0.003707479452714324, 0.10135496407747269, 0.005281656514853239, -0.11238282173871994, -0.18910299241542816, 0.07635350525379181, -0.2022845298051834, -0.22849014401435852, -0.02410660870373249, -0.2011830061674118, 0.02323159947991371, 0.05941971763968468, 0.032161373645067215, -0.13186754286289215, -0.01529422402381897, 0.007246945984661579, 0.002090964699164033, 0.04006790369749069, 0.2260292023420334, 0.11221474409103394, -0.11531149595975876, 0.0766512006521225, 0.03571430966258049, -0.09394049644470215, 0.10625220090150833, 0.1363019198179245, -0.0662379339337349, -0.12026107311248779, -0.16940397024154663, -0.07931690663099289, 0.08615812659263611, -0.0865580141544342, 0.23215968906879425, -0.00937108788639307, -0.015988966450095177, -0.07850348204374313, 0.13680601119995117, 0.04539940133690834, 0.040724582970142365, 0.04832887649536133, -0.05694687366485596, -0.1542067974805832, -0.10934586077928543, 0.07403382658958435, 0.05803345888853073, -0.036560654640197754, 0.02793225832283497, 0.13002713024616241, 0.20754490792751312, 0.2634636461734772, -0.14996397495269775, -0.16426509618759155, 0.1253548413515091, 0.0920722633600235, 0.03738873451948166, 0.08929328620433807, -0.057793766260147095, -0.11548575013875961, -0.031741149723529816, 0.1328309178352356, 0.07100112736225128, 0.04816552624106407, -0.10425228625535965, 0.03933589532971382, -0.27799859642982483, -0.07467092573642731, -0.08490384370088577, 0.008554385975003242, -0.24474002420902252, -0.11245844513177872, -0.1932038813829422, -0.014702991582453251, -0.07044113427400589, 0.08863415569067001, -0.09598009288311005, 0.0770353302359581, 0.026598747819662094, -0.02669435925781727, 0.15583990514278412, 0.04716809466481209, -0.04420559108257294, -0.1834300458431244, -0.24963343143463135, 0.42044514417648315, -0.3312453627586365, 0.3617420494556427, 0.30479753017425537, -0.16095001995563507, -0.007244000677019358, 0.5256232619285583, -0.2654653489589691, 0.1990543156862259, 0.18965302407741547, -0.2246168702840805, 0.02123836614191532, -0.025020787492394447, -0.014858345501124859, -0.12581391632556915, -0.10962844640016556, 0.09823984652757645, -0.1145889088511467, -0.005674242507666349, -0.20134256780147552, 0.08063650876283646, -0.048205070197582245, 0.11671780049800873, -0.2088472545146942, 0.03519218787550926, -0.02901989221572876, 0.008405451662838459, 0.18551985919475555, 0.03084649331867695, 0.13689225912094116, 0.11417236924171448, 0.16419851779937744, 0.022114863619208336, 0.10862290859222412, -0.23471775650978088, 0.13470259308815002, 0.05228679999709129, 0.009448496624827385, 0.09289374947547913, -0.016494713723659515, 0.04865304380655289, -0.04677625000476837, 0.20126557350158691, 0.17716825008392334, 0.006776067428290844, 0.07544388622045517, -0.1650022566318512, 0.330647349357605, -0.34333693981170654, 0.30126649141311646, -0.047692764550447464, -0.19260427355766296, -0.09402377158403397, -0.04474202170968056, -0.20609532296657562, 0.12924373149871826, 0.02693062834441662, 0.031233247369527817, -0.16264352202415466, 0.1956373155117035, 0.03237520158290863, -0.02016625553369522, 0.06670078635215759, 0.07460186630487442, -0.0009129621321335435, 0.08261679112911224, -0.17286956310272217, 0.15611141920089722, -0.26665353775024414, -0.04235503450036049, -0.14907847344875336, -0.13416580855846405, -0.043088577687740326, 0.2373659610748291, 0.22617892920970917, -0.14316603541374207, -0.03658141568303108, -0.13731792569160461, 0.002385755768045783, -0.06051884591579437, -0.06931916624307632, -0.054026324301958084, -0.22681517899036407, 0.022917628288269043, -0.09793471544981003, -0.1934318095445633, 0.05568858981132507, 0.0735263079404831, -0.14104054868221283, -0.27349764108657837, 0.037379708141088486, 0.11850696802139282, -0.09974497556686401, -0.09282472729682922, -0.1669611632823944, 0.159078910946846, -0.027638116851449013, 0.23431457579135895, 0.106507308781147, 0.045017898082733154, -0.1762414425611496, 0.31044113636016846, 0.006696151103824377, 0.1417626142501831, 0.09531653672456741, 0.19172024726867676, -0.31664034724235535, 0.07995915412902832, 0.00044483836973086, -0.14440637826919556, -0.22224709391593933, -0.07641494274139404, -0.2983289957046509, -0.10377664119005203, -0.1982566863298416, 0.005053698550909758, -0.10801761597394943, 0.15303459763526917, -0.10677164047956467, 0.09097030013799667, -0.06652725487947464, 0.07947541773319244, -0.05620789900422096, 0.10280977189540863, 0.1321863979101181, -0.05248047038912773, -0.07703592628240585, -0.11731882393360138, -0.1839228868484497, -0.04788700118660927, 0.07675974816083908, 0.14454305171966553, 0.12103211879730225, 0.05476145073771477, 0.012809274718165398, 0.14835648238658905, 0.051242876797914505, -0.0024207986425608397, -0.07334965467453003, 0.07210908830165863, 0.0005060058902017772, -0.07622908055782318, -0.10277692973613739, -0.23517194390296936, 0.06981584429740906, -0.2188044637441635, -0.07586923241615295, -0.03617238253355026, -0.1415562927722931, 0.15674245357513428, 0.03281585872173309, 0.09785950928926468, -0.09712308645248413, -0.014392671175301075, -0.08814437687397003, -0.10367033630609512, 0.05561121553182602, 0.021128855645656586, 0.11647935956716537, -0.10698569566011429, 0.21548157930374146, 0.3412416875362396, 0.016791081055998802, -0.016865046694874763, -0.016148744150996208, -0.05457078292965889, 0.009879174642264843, 0.154457226395607, -0.1609150767326355, -0.24391989409923553, -0.27152934670448303, 0.17057612538337708, 0.024417588487267494, 0.15809960663318634, 0.10539037734270096, 0.026740513741970062, 0.09531658887863159, -0.15181241929531097, 0.08117064833641052, -0.1475962996482849, -0.20347405970096588, 0.1434960663318634, -0.11605091392993927, 0.06290648877620697, -0.03314380347728729, 0.03536567836999893, 0.03224790468811989, -0.10301516950130463, 0.08945927023887634, -0.02139834500849247, -0.19114653766155243, -0.05125540494918823, -0.1095517948269844, -0.13645276427268982, 0.1942499727010727, -0.13303636014461517, 0.11650872230529785, -0.07876045256853104, -0.06722021847963333, -0.13089191913604736, -0.02264317311346531, -0.18300633132457733, 0.05179663747549057, 0.03852352127432823, -0.07794000208377838, -0.1176111251115799, 0.2131640762090683, -0.3009258806705475, 0.020248321816325188, -0.28945958614349365, -0.20699797570705414, 0.06381330639123917, -0.08806220442056656, -0.06274008005857468, -0.08210117369890213, -0.11294667422771454, -0.09878870844841003, 0.013900206424295902, 0.09704718738794327, -0.059402067214250565, 0.1368018388748169, -0.2040628045797348, -0.10118967294692993, 0.27413108944892883, 0.026632172986865044, 0.09013789147138596, 0.034009166061878204, 0.05726013705134392, -0.04727271571755409, -0.0015126588987186551, -0.12534479796886444, 0.04765540733933449, 0.11888762563467026, 0.02225015126168728, -0.016840754076838493, -0.11194761097431183, 0.10818261653184891, -0.07388720661401749, 0.07850006967782974, 0.310249924659729, -0.15809692442417145, 0.13471634685993195, 0.09613585472106934, -0.005818404722958803, 0.10167577117681503, -0.04071534052491188, -0.11977197229862213, -0.0870136171579361, -0.1680518388748169, 0.18034446239471436, 0.18181279301643372, -0.18277868628501892, 0.0956849530339241, -0.02901630662381649, 0.02612951025366783, 0.14958471059799194, -0.0897260531783104, -0.0011722404742613435, -0.008005324751138687, -0.21290317177772522, 0.0020490670576691628, -0.00891182105988264, -0.02454814501106739, -0.10698893666267395, 0.01387554220855236, -0.2941210865974426, -0.16750875115394592, 0.035084571689367294, -0.10710116475820541, -0.1376533806324005, -0.01312014926224947, -0.006982367020100355, 0.032944291830062866, 0.005509369540959597, 0.40163037180900574, -0.01464059203863144, 0.06421668827533722, 0.12206461280584335, -0.22264063358306885, -0.04739029332995415, -0.06332859396934509, -0.07861900329589844, 0.02989627979695797, -0.11105775088071823, 0.14957842230796814, 0.021176515147089958, -0.06908728182315826, -0.15299171209335327, 0.11681459844112396, -0.12012726813554764, 0.2674391567707062, 0.12070716172456741, 0.0006608722032979131, -0.25281426310539246, -0.19805379211902618, 0.05404329672455788, -0.04604364186525345, -0.07613497227430344, 0.2598627805709839, -0.2001263052225113, -0.043490875512361526, -0.0923137217760086, 0.08877701312303543, 0.08293209969997406, 0.17330771684646606, -0.2714312672615051, 0.15844948589801788, 0.015615624375641346, -0.12255262583494186, 0.09515154361724854, 0.16262057423591614, -0.345941424369812, -0.08385638147592545, -0.013820214197039604, 0.03379715234041214, -0.27610042691230774, 0.060429979115724564, -0.18686461448669434, 0.0642518475651741, 0.13191339373588562, 0.045043691992759705, 0.05279609560966492, 0.10458968579769135, -0.028124719858169556, 0.03670363873243332, 0.035284727811813354, -0.17498953640460968, 0.0473993755877018, 0.017835920676589012, -0.07165493816137314, -0.028788411989808083, -0.2231145203113556, 0.15905089676380157, -0.02895451709628105, -0.0319773368537426, -0.06755896657705307, -0.008995908312499523, -0.1378473937511444, 0.014528896659612656, -0.059068385511636734, 0.08998914808034897, -0.03102264553308487, 0.00959568377584219, 0.030547354370355606, -0.19422926008701324, 0.08582492172718048, 0.24256925284862518, -0.018231742084026337, 0.033146776258945465, -0.09688186645507812, -0.1829700767993927, 0.08763282746076584, -0.10513317584991455, 0.06328418105840683, 0.03169364854693413, -0.13265398144721985, -0.10354134440422058, -0.012312732636928558, -0.09223019331693649, 0.01666216552257538, 0.16625110805034637, 0.07060424983501434, 0.061552975326776505, 0.007909772917628288, -0.04400113597512245, -0.036888085305690765, 0.030677413567900658, 0.0010020537301898003, -0.059245139360427856, 0.059732548892498016, -0.02221495658159256, -0.003875177353620529, -0.12396761775016785, -0.043659597635269165, 0.05530421808362007, 0.06645523011684418, 0.020102623850107193, 0.18308338522911072, 0.004283873364329338, 0.15796953439712524, -0.06822023540735245, 0.039518438279628754, 0.025675099343061447, 0.10769563913345337, 0.2586492896080017, -0.1585526019334793, 0.06560184806585312, -0.0013872500276193023, -0.18060755729675293, 0.11125805228948593, 0.08461648970842361, -0.24167554080486298, 0.10940580815076828, -0.05961019545793533, -0.15948431193828583, -0.06425485759973526, 0.06552663445472717, -0.00994091760367155, 0.07786071300506592, -0.17648568749427795, 0.07133977860212326, -0.0626644641160965, 0.1566789299249649, 0.17561295628547668, -0.045281827449798584, -0.0023506521247327328, 0.027507426217198372, -0.20633375644683838, -0.04769560322165489, -0.13975737988948822, -0.1058662161231041, -0.1828884780406952, -0.030369602143764496, -0.13155098259449005, 0.08384455740451813, 0.04719322919845581, -0.03944271057844162, -0.11375436186790466, -0.01880243420600891, -0.07719141244888306, -0.013847889378666878, 0.007554792799055576, 0.08116332441568375, 0.02200079709291458, 0.08971557766199112, 0.05857577174901962, 0.1303648054599762, -0.016386087983846664, -0.1279853731393814, -0.013573744334280491, 0.07205203920602798, 0.14197909832000732, 0.17423482239246368, -0.003599445801228285, -0.05989754945039749, 0.016395729035139084, -0.20544524490833282, -0.03167051076889038, 0.04284264147281647, -0.13083498179912567, 0.18457086384296417, -0.038533177226781845, -0.05228573456406593, 0.15635067224502563, -0.017453491687774658, 0.05089414119720459, -0.11038045585155487, -0.08570574969053268, 0.07292529940605164, -0.02118438296020031, -0.078765869140625, 0.039746686816215515, -0.047700606286525726, -0.12186992913484573, -0.008305959403514862, -0.1939420849084854, 0.056854382157325745, 0.05226156488060951, 0.18996743857860565, -0.03410914167761803, 0.07639522105455399, 0.0994153618812561, 0.20733292400836945, -0.014250047504901886, 0.12585557997226715, 0.026014089584350586, 0.23546260595321655, -0.003451659344136715, -0.03230535611510277, 0.13229818642139435, -0.23424065113067627, -0.1260158121585846, -0.15147937834262848, 0.13702619075775146, 0.07517527788877487, -0.22149237990379333, 0.04623890295624733, 0.07220520079135895, 0.1642509549856186, -0.3919883072376251, 0.15494926273822784, -0.34517037868499756, -0.0872945785522461, -0.18916882574558258, -0.08797731250524521, -0.130075141787529, 0.009631950408220291, 0.06816720962524414, 0.12064050137996674, -0.11012808233499527, 0.14585177600383759, -0.18056833744049072, -0.11500530689954758, -0.15034134685993195, 0.13369742035865784, -0.11486905068159103, 0.07644998282194138, -0.16311442852020264, 0.011817850172519684, 0.11910068243741989, -0.23307357728481293, 0.0950794592499733, 0.05441693216562271, -0.10125616937875748, 0.018593069165945053, 0.2203695923089981, 0.2921115756034851, -0.0021493653766810894, 0.07411956787109375, -0.014621639624238014, -0.011628195643424988, -0.03399445489048958, 0.014562200754880905, 0.055954866111278534, 0.0944141149520874, -0.04527699574828148, -0.05179699510335922, 0.017103949561715126, 0.06322567909955978, 0.05809811130166054, 0.04754294455051422, 0.020863613113760948, -0.06672272831201553, -0.4155774712562561, 0.19056184589862823, 0.449381023645401, -0.4082351326942444, 0.028571365401148796, -0.5447314381599426, -0.30005866289138794, -0.18891200423240662, 0.5606890320777893, -0.7446385622024536, -0.49165189266204834, -0.6660581827163696, 0.20553259551525116, -0.7439376711845398, 0.28192490339279175, -0.6519966125488281, -0.2924502193927765, -0.011945920996367931, 0.29592883586883545, 0.507301926612854, 0.015800926834344864, 0.30154961347579956, -0.2999560534954071, 0.09886983036994934, -0.2113947719335556, -0.37811732292175293, 0.15047375857830048, 0.1940726935863495, 0.30457961559295654, 0.11638645082712173, -0.24638591706752777, -0.18371735513210297, 0.0445009246468544, -0.25904327630996704, 0.004610876552760601, -0.0072421119548380375, -0.26401323080062866, 0.262850284576416, -0.05715426430106163, -0.06420791894197464, 0.06608690321445465, -0.11118371784687042, 0.04253755882382393, 0.21445424854755402, -0.09992441534996033, 0.16831393539905548, 0.19307442009449005, 0.19755826890468597, 0.05562564358115196, -0.42680373787879944, 0.014968403615057468, 0.32224199175834656, 0.020286424085497856, 0.2550923526287079, 0.13877016305923462, 0.2563123404979706, 0.015335234813392162, 0.24123674631118774, -0.3313264548778534, -0.3671969771385193, -0.341678649187088, 0.2846299111843109, 0.2684517204761505, 0.07773808389902115, -0.03615612909197807, 0.17713715136051178, -0.16067413985729218, -0.2193528711795807, -0.14882397651672363, -0.01905016601085663, 0.021343708038330078, -0.058895789086818695, -0.17938092350959778, 0.060399074107408524, 0.11966589093208313, 0.27578285336494446, 0.1634196639060974, -0.18851910531520844, -0.09215006232261658, 0.06373023241758347, 0.4155489206314087, 0.11620383709669113, -0.21192459762096405, -0.2964707612991333, 0.05960967764258385, -0.056267157196998596, -0.01196456141769886, 0.32549598813056946, 0.18562257289886475, -0.15288935601711273, -0.10901771485805511, 0.12872503697872162, -0.027736082673072815, -0.05367441847920418, -0.07065965235233307, -0.19376643002033234, 0.054184336215257645, -0.02205520123243332, -0.4259527921676636, -0.309272825717926, 0.03476879373192787, -0.2857191562652588, -0.036696646362543106, -0.1104528084397316, 0.16964924335479736, 0.28518009185791016, -0.08593504130840302, -0.1845514327287674, -0.006080876104533672, -0.19132399559020996, 0.20084065198898315, 0.09959769248962402, -0.04449773207306862, -0.0742390900850296, 0.1806105226278305, -0.40493229031562805, 0.103205107152462, 0.3015783727169037, -0.43259790539741516, -0.2672725021839142, 0.20529982447624207, -0.008912463672459126, -0.267403781414032, 0.07774873077869415, 0.12042633444070816, -0.1649511456489563, 0.008342946879565716, 0.2357182800769806, 0.051656682044267654, 0.0033974272664636374, -0.15053138136863708, -0.06597822159528732, 0.05223563686013222, 0.06815978139638901, -0.14608721435070038, -0.07508205622434616, -0.11475402861833572, 0.39752745628356934, -0.18402858078479767, 0.08407619595527649, -0.027146462351083755, 0.1611192226409912, 0.29037508368492126, 0.27816396951675415, 0.1388920694589615, 0.1420934945344925, -0.05467688664793968, -0.1233053132891655, -0.05042630061507225, -0.10595908015966415, 0.004495915025472641, -0.10807038098573685, -0.009852533228695393, -0.028236795216798782, 0.3430832624435425, 0.045152124017477036, -0.13487309217453003, 0.14553961157798767, -0.12793755531311035, 0.25086134672164917, 0.020690634846687317, -0.011475412175059319, 0.300095796585083, 0.05931119620800018, 0.037802767008543015, -0.039068546146154404, 0.19903026521205902, -0.0011792596196755767, -0.1158636137843132, 0.06316676735877991, 0.16876763105392456, 0.21654731035232544, 0.04225407913327217, 0.027897406369447708, 0.05690599977970123, -0.03933640569448471, 0.004430893808603287, -0.196177139878273, -0.21994024515151978, -0.015861155465245247, 0.05730566754937172, 0.03409799188375473, -0.04405724257230759, -0.09994417428970337, 0.18692730367183685, 0.29764819145202637, -0.19086064398288727, 0.11314753443002701, 0.00541971018537879, 0.13759678602218628, 0.13416816294193268, 0.17995581030845642, 0.019600678235292435, 0.3247184753417969, -0.19472749531269073, -0.1505974978208542, -0.23602287471294403, -0.04590429365634918, 0.2109295278787613, 0.31143954396247864, -0.2420136034488678, 0.12838079035282135, 0.15661323070526123, -0.15082508325576782, 0.02610708586871624, -0.012167409062385559, -0.011794929392635822, -0.09023381769657135, -0.08047989755868912, -0.12381239980459213, -0.43902525305747986, 0.017463192343711853, 0.2529420554637909, -0.040653690695762634, -0.26448774337768555, -0.055373892188072205, 0.12148640304803848, -0.11843904107809067, -0.2890622019767761, -0.16225877404212952, 0.10855454206466675, -0.28005850315093994, 0.15450741350650787, -0.06509946286678314, 0.39232710003852844, 0.06227943301200867, 0.19074559211730957, 0.14972293376922607, -0.24320688843727112, -0.08422816544771194, 0.17624981701374054, 0.05211315676569939, 0.022189635783433914, 0.15731418132781982, -0.08497833460569382, 0.004141614772379398, 0.12730799615383148, 0.08075866103172302, -0.029586680233478546, -0.1658683568239212, 0.012344458140432835, 0.08840639144182205, -0.062383681535720825, -0.10065385699272156, -0.030068760737776756, -0.3551616370677948, 0.2669186294078827, -0.07673966139554977, -0.10609134286642075, 0.18974792957305908, -0.1281595081090927, 0.029625335708260536, -0.2891518175601959, 0.17793607711791992, 0.23595401644706726, 0.15727289021015167, 0.13661149144172668, -0.07856720685958862, -0.15463973581790924, 0.11143679916858673, -0.12613774836063385, 0.07606257498264313, -0.19867894053459167, 0.04483139142394066, 0.26522693037986755, -0.2451736330986023, 0.25821802020072937, 0.1794152557849884, -0.04325832054018974, 0.2898348271846771, -0.2584418058395386, -0.18924468755722046, -0.051699958741664886, -0.004753241781145334, -0.011281564831733704, -0.05431823804974556, -0.05748549476265907, 0.035136714577674866, 0.07358662039041519, 0.037451013922691345, 0.06270747631788254, -0.015171087346971035, 0.027441348880529404, -0.08720197528600693, 0.052195120602846146, -0.03495144098997116, -0.02500239759683609, -0.02815333940088749, 0.312418669462204, -0.060288939625024796, -0.2727421224117279, 0.0940978080034256, -0.1370844841003418, -0.05045059323310852, 0.09715116769075394, 0.12918302416801453, 0.02669915184378624, 0.2254549264907837, -0.12063880264759064, -0.11734557896852493, 0.21628999710083008, 0.31738075613975525, 0.10213009268045425, -0.08938486874103546, 0.06317304074764252, 0.0023932377807796, -0.046374738216400146, -0.14599741995334625, -0.0735224038362503, -0.2934834361076355, -0.0956798568367958, -0.05877356976270676, -0.06342461705207825, 0.006441138219088316, -0.04878434166312218, 0.05765937268733978, -0.15447236597537994, -0.07692470401525497, 0.09553299099206924, 0.08580636978149414, -0.03999939560890198, -0.14598649740219116, 0.24714893102645874, 0.21236871182918549, 0.2312307506799698, -0.09662415087223053, -0.006959919817745686, -0.04482543468475342, 0.19736887514591217, 0.15746352076530457, 0.09441284090280533, 0.02820531465113163, -0.10840236395597458, 0.257097065448761, -0.06505846232175827, 0.07402126491069794, -0.027105970308184624, -0.13151825964450836, 0.06146005168557167, -0.21925514936447144, 0.09289766848087311, -0.03096632845699787, -0.05916349217295647, 0.3383806049823761, 0.1311112940311432, 0.1290455460548401, -0.1182260662317276, -0.26212334632873535, 0.07637019455432892, -0.08192040026187897, 0.087886281311512, -0.17433719336986542, -0.026606367900967598, -0.0732293426990509, 0.08277760446071625, -0.2257404625415802, 0.11005306243896484, -0.1575177013874054, 0.00824500061571598, 0.15005193650722504, 0.2686592936515808, -0.03543214872479439, -0.23433025181293488, 0.40813297033309937, 0.11656441539525986, 0.00541480490937829, 0.20450004935264587, 0.16325396299362183, 0.01204119622707367, 0.10493645817041397, -0.16551366448402405, -0.13405488431453705, -0.07057448476552963, 0.24428901076316833, -0.1489262729883194, 0.1355905383825302, -0.023179257288575172, -0.33871617913246155, -0.15673325955867767, 0.15403743088245392, -0.1973671317100525, 0.30374979972839355, 0.10309953987598419, -0.02964724786579609, 0.2969328761100769, 0.1420447826385498, -0.2386617660522461, 0.08215030282735825, -0.16017886996269226, -0.20188671350479126, 0.23320060968399048, -0.1957794725894928, 0.15488141775131226, -0.1311722695827484, 0.19886593520641327, 0.20663416385650635, 0.004475565627217293, -0.06191329285502434, -0.025304468348622322, 0.06501966714859009, 0.024211758747696877, 0.219634011387825, 0.06289471685886383, 0.24296897649765015, 0.06645099818706512, -0.10312577337026596, -0.2409282773733139, 0.04424584284424782, -0.04610205814242363, 0.08687659353017807, 0.13461768627166748, 0.0005776644102297723, 0.014400959014892578, 0.04365861788392067, -0.08676566183567047, 0.03765198215842247, 0.01100627426058054, -0.12532605230808258, 0.2287907600402832, 0.27881479263305664, 0.2328699380159378, 0.08885078877210617, 0.2785562574863434, -0.20842425525188446, 0.02641032077372074, 0.28989776968955994, 0.10244838148355484, -0.17062048614025116, 0.21100053191184998, -0.10885387659072876, -0.137046679854393, 0.01414539571851492, -0.11523181200027466, -0.10710055381059647, -0.06996921449899673, -0.1851978451013565, 0.04332694038748741, 0.14154469966888428, 0.07866038382053375, -0.10325141996145248, -0.00241375551559031, 0.07878948748111725, 0.3103533089160919, -0.17115327715873718, 0.010181637480854988, -0.07350055128335953, 0.0026683383621275425, 0.003618069225922227, -0.03186483681201935, 0.24333339929580688, 0.07054974138736725, 0.38142403960227966, -0.004797807894647121, -0.007811753079295158, 0.10938873142004013, 0.33510822057724, -0.008400189690291882, 0.2360369712114334, 0.04704178497195244, -0.06677009165287018, 0.0668526217341423, -0.13107554614543915, 0.026161352172493935, 0.27300381660461426, 0.08152159303426743, 0.11891607195138931, -0.09081321954727173, -0.2229911834001541, -0.05062242969870567, -0.09636859595775604, -0.12580204010009766, 0.1092299297451973, 0.03188978508114815, -0.001244923798367381, 0.035945694893598557, -0.0848873183131218, 0.3417309522628784, -0.08518815040588379, -0.14224253594875336, -0.059162482619285583, -0.04355878755450249, -0.2172057181596756, 0.20210617780685425, -0.020563339814543724, 0.0815000832080841, -0.1126304641366005, -0.08832335472106934, -0.07396597415208817, -0.19651664793491364, 0.03992464020848274, 0.025461740791797638, 0.10182777792215347, 0.06354642659425735, 0.0408235527575016, -0.10943446308374405, 0.19719462096691132, 0.25948721170425415, -0.11895561963319778, -0.11644524335861206, -0.004137868992984295, 0.15581399202346802, -0.017051417380571365, 0.07680273801088333, -0.06952197849750519, -0.08727338910102844, -0.2762647867202759, 0.16036297380924225, 0.04090649262070656, 0.1711668074131012, 0.2387949377298355, -0.15357470512390137, -0.25530290603637695, 0.029395634308457375, 0.21307678520679474, -0.006283893715590239, -0.12229759246110916, -0.11761810630559921, -0.01328281406313181, -0.12494465708732605, -0.11825460195541382, -0.2769432067871094, 0.13470377027988434, 0.023653551936149597, -0.17383238673210144, -0.0020870622247457504, -0.1021653413772583, -0.18613027036190033, 0.09136443585157394, 0.21440713107585907, -0.11226540803909302, -0.31553444266319275, -0.011305210180580616, 0.07813532650470734, 0.056508440524339676, -0.07248392701148987, -0.19889529049396515, 0.12444929033517838, 0.037533752620220184, 0.12980730831623077, 0.028571514412760735, 0.15438270568847656, -0.10079490393400192, 0.06936423480510712, -0.07972835004329681, -0.10613460093736649, 0.1827317476272583, -0.07451311498880386, 0.3407844305038452, -0.034114670008420944, -0.2697455883026123, -0.024192538112401962, 0.24702757596969604, 0.023044152185320854, 0.1497259885072708, -0.13497436046600342, -0.16432501375675201, 0.10741335153579712, 0.03900352120399475, 0.04442717134952545, 0.4001333713531494, 0.046574369072914124, -0.062221724539995193, -0.015653548762202263, 0.028496088460087776, 0.28319239616394043, -0.04404625669121742, -0.21698351204395294, -0.16937421262264252, -0.027422724291682243, 0.15968023240566254, -0.11772912740707397, 0.07051850855350494, 0.1333390772342682, 0.18709418177604675, -0.15484683215618134, -0.11860012263059616, -0.09433428198099136, -0.20500332117080688, -0.1996815949678421, 0.05549752339720726, -0.07490476965904236, -0.006384630221873522, 0.17708273231983185, -0.32323718070983887, -0.073316290974617, -0.15259471535682678, 0.2647913992404938, 0.14066126942634583, 0.14245523512363434, -0.10714127868413925, -0.0019560588989406824, 0.13430160284042358, 0.06629449129104614, -0.11070559173822403, -0.0021018560510128736, 0.18863144516944885, -0.19559632241725922, 0.14497904479503632, 0.16746221482753754, -0.17152900993824005, -0.329446017742157, 0.11473488807678223, 0.2436116635799408, -0.17150817811489105, 0.17037373781204224, 0.16021974384784698, -0.3496887981891632, 0.07205989211797714, -0.0736086443066597, -0.06560409069061279, -0.19253312051296234, -0.1307678520679474, -0.36644288897514343, 0.1055321916937828, 0.22238656878471375, -0.29760271310806274, 0.23719996213912964, 0.09045691043138504, -0.12618379294872284, 0.021942416206002235, 0.27462121844291687, 0.15355390310287476, -0.17516425251960754, -0.017940446734428406, -0.042072638869285583, 0.15002422034740448, -0.32433488965034485, 0.003356929635629058, 0.061829615384340286, 0.17225967347621918, 0.1633487492799759, 0.23682737350463867, 0.0604536272585392, -0.16835874319076538, 0.19558075070381165, -0.09141602367162704, -0.21933485567569733, -0.022381607443094254, 0.010746154002845287, -0.13904522359371185, -0.03497975692152977, 0.1599876582622528, -0.2310607135295868, 0.045902375131845474, 0.1021973192691803, -0.12378254532814026, -0.22366571426391602, 0.1306208223104477, 0.0808015763759613, 0.23765264451503754, -0.15112529695034027, -0.03356580436229706, -0.03427072614431381, -0.21890446543693542, 0.2746722102165222, 0.120357446372509, 0.014926135540008545, -0.08186528831720352, 0.14691539108753204, -0.05228886008262634, 0.003704825881868601, 0.14533837139606476, 0.10365249216556549, -0.03150603547692299, 0.05327419191598892, -0.05341177433729172, 0.131937637925148, -0.06877756118774414, 0.027681894600391388, -0.07905623316764832, -0.128731831908226, -0.16280995309352875, -0.2268882542848587, -0.07434967160224915, -0.11531506478786469, 0.08310672640800476, 0.07175004482269287, 0.32210689783096313, 0.043699923902750015, 0.39119648933410645, 0.11884696036577225, 0.16073018312454224, 0.06549496948719025, -0.02279890887439251, -0.06307774037122726, -0.06462716311216354, -0.06953491270542145, -0.08486466109752655, -0.155195415019989, -0.06235022097826004, 0.10980547219514847, -0.11916542798280716, -0.0049166907556355, -0.13384008407592773, 0.00793640036135912, 0.16804997622966766, 0.14885373413562775, -0.15685315430164337, -0.06257633119821548, 0.10456085950136185, -0.0365622416138649, -0.04262226074934006, 0.23520444333553314, 0.2023300975561142, 0.10411448776721954, 0.2977406680583954, -0.042381707578897476, -0.1545039713382721, -0.16014277935028076, 0.009973997250199318, -0.041608184576034546, -0.05436571687459946, 0.12080605328083038, 0.0950356125831604, 0.24527613818645477, 0.09172990918159485, 0.08129996061325073, -0.061430107802152634, 0.03623918816447258, -0.2047862708568573, 0.1235632672905922, -0.019900504499673843, 0.055394336581230164, 0.057523611932992935, 0.17020739614963531, -0.08049511909484863, 0.0974147766828537, 0.2406337857246399, 0.03223688527941704, -0.3233642578125, -0.25074565410614014, -0.07539990544319153, -0.011768114753067493, 0.07783473283052444, 0.16117416322231293, -0.0569637157022953, -0.03835109993815422, -0.25605762004852295, -0.2841256260871887, -0.16843020915985107, -0.10609272867441177, -0.026873385533690453, -0.20177192986011505, -0.21212933957576752, -0.16350729763507843, -0.22644130885601044, 0.14529716968536377, 0.03429535776376724, -0.09615542739629745, 0.18334193527698517, -0.13089042901992798, 0.1112055629491806, 0.008062231354415417, -0.044837698340415955, 0.28800392150878906, 0.06194765493273735, -0.38952648639678955, 0.11829137802124023, 0.13169603049755096, -0.017468206584453583, -0.10943027585744858, 0.0029942833352833986, 0.008246118202805519, 0.19658665359020233, -0.3019123375415802, 0.11184895038604736, -0.03753763809800148, 0.017304811626672745, 0.004242585971951485, 0.013379042968153954, -0.20221486687660217, -0.0322393923997879, 0.0918794497847557, 0.38253873586654663, 0.08953052014112473, 0.22291845083236694, 0.2294842153787613, 0.06743837893009186, 0.24118460714817047, -0.013279450125992298, 0.03815271332859993, -0.13546760380268097, 0.06826087832450867, 0.09447767585515976, -0.10666254162788391, 0.015806328505277634, 0.045065976679325104, -0.03781909868121147, -0.16548185050487518, -0.04416728392243385, 0.056549422442913055, 0.15877927839756012, -0.005726518575102091, 0.2618292570114136, 0.028709741309285164, 0.0032086223363876343, 0.04355568811297417, -0.07025979459285736, -0.010581345297396183, 0.2353549301624298, 0.13572411239147186, 0.14179706573486328, -0.028807219117879868, -0.019830789417028427, -0.05334138125181198, 0.12161411345005035, 0.032503627240657806, -0.024176571518182755, 0.30698251724243164, -0.18335045874118805, -0.025095660239458084, 0.15980790555477142, 0.017380114644765854, 0.05352860316634178, 0.02030857652425766, -0.1370227038860321, 0.028474461287260056, -0.03453963249921799, 0.15083332359790802, 0.033995866775512695, -0.1309269368648529, 0.16412192583084106, 0.13670457899570465, 0.21389532089233398, 0.24356204271316528, -0.20195916295051575, -0.0954756885766983, 0.08606338500976562, 0.07526902109384537, 0.08030249178409576, -0.20231077075004578, 0.007078173570334911, -0.2529570758342743, -0.2986393868923187, 0.06961503624916077, -0.20955902338027954, 0.06522823125123978, 0.0222382340580225, -0.27819231152534485, -0.1988699734210968, -0.19904494285583496, 0.0693037137389183, 0.017669612541794777, -0.3863363564014435, -0.11590571701526642, -0.05193279683589935, -0.2090509533882141, 0.025462599471211433, 0.11758167296648026, -0.014131598174571991, 0.021385392174124718, -0.25816476345062256, -0.03504771739244461, -0.05859502777457237, 0.12790073454380035, -0.018781976774334908, 0.03736162930727005, 0.4451582133769989, 0.03612758219242096, -0.034098364412784576, 0.20005857944488525, 0.02305755205452442, -0.06024475768208504, -0.0067359632812440395, 0.08460736274719238, -0.048135872930288315, 0.29186850786209106, -0.06012148782610893, -0.0020444004330784082, -0.33763033151626587, -0.43475741147994995, -0.36090216040611267, -0.07755465805530548, 0.10360907763242722, -0.2199201136827469, 0.1197594702243805, 0.14857244491577148, 0.0006914244149811566, -0.021594420075416565, -0.016350354999303818, 0.19960425794124603, 0.0016021598130464554, 0.17010022699832916, 0.1798620969057083, -0.04984796792268753, 0.03777329623699188, -0.058220211416482925, -0.13759267330169678, 0.09083797037601471, -0.3243236243724823, 0.16016758978366852, -0.08220334351062775, -0.2057134509086609, 0.0534837506711483, -0.07733003050088882, -0.25368446111679077, -0.05573926120996475, -0.007954119704663754, -0.026012135669589043, 0.3409597873687744, 0.02250504493713379, 0.07607564330101013, -0.026772962883114815, 0.0889405906200409, -0.06580402702093124, 0.12451594322919846, -0.3400820791721344, -0.10103772580623627, -0.21069802343845367, 0.213995561003685, 0.05829811841249466, 0.14200615882873535, 0.05419020354747772, 0.29345831274986267, 0.2888614237308502, 0.09684228152036667, -0.1805357187986374, 0.10709413141012192, 0.14979851245880127, -0.13993461430072784, -0.2022748738527298, -0.2989160120487213, -0.23167656362056732, 0.2520168721675873, -0.07296250015497208, 0.09945093840360641, -0.04978548735380173, 0.007298931013792753, 0.04632759094238281, -0.24857884645462036, -0.11004628986120224, -0.19156815111637115, 0.23970560729503632, 0.11468441039323807, -0.11437875777482986, -0.15563206374645233, -0.1006108969449997, -0.12951773405075073, 0.06492217630147934, -0.006778042297810316, -0.19080856442451477, 0.18251098692417145, -0.15554547309875488, -0.39921489357948303, -0.004591836594045162, 0.034191153943538666, 0.1490914672613144, 0.06828492134809494, -0.22025734186172485, 0.11329187452793121, 0.18477262556552887, 0.14173920452594757, 0.1419084370136261, -0.3149429261684418, 0.06582587957382202, -0.33486208319664, -0.16791479289531708, 0.0005979671259410679, 0.2494296133518219, 0.14509935677051544, -0.1425909399986267, 0.12894116342067719, 0.32330021262168884, 0.12538374960422516, 0.09567886590957642, -0.14550583064556122, -0.14967599511146545, 0.01848154328763485, -0.09278596937656403, -0.049888744950294495, -0.22522452473640442, 0.1575399488210678, 0.050320569425821304, -0.16304698586463928, -0.16153548657894135, 0.1633908599615097, 0.005566440522670746, -0.2821236550807953, 0.07838845252990723, -0.017069365829229355, -0.15858528017997742, 0.03421303629875183, 0.08743619918823242, -0.2732853591442108, 0.07679632306098938, -0.17401428520679474, 0.11165612936019897, 0.05914103612303734, -0.046585820615291595, 0.08338144421577454, -0.07721954584121704, -0.21008452773094177, 0.03511671721935272, 0.13359948992729187, -0.06361742317676544, -0.0027468400076031685, -0.16669070720672607, -0.11747969686985016, -0.12158896774053574, -0.14119675755500793, 0.11128954589366913, 0.08542406558990479, -0.057363640516996384, -0.26931998133659363, -0.18932385742664337, -0.29709261655807495, 0.09698601067066193, -0.016325749456882477, -0.11586121469736099, 0.03493914380669594, 0.0748644545674324, 0.19948627054691315, 0.09265799820423126, -0.06330369412899017, -0.009535212069749832, -0.10671775043010712, -0.09149590134620667, -0.23118330538272858, -0.01216054055839777, 0.30291810631752014, -0.040496986359357834, 0.07564662396907806, 0.1473003327846527, 0.34752312302589417, 0.13966818153858185, -0.046400509774684906, 0.3352371156215668, 0.22479072213172913, 0.22762331366539001, 0.4078710079193115, 0.20453767478466034, -0.07105139642953873, -0.17415086925029755, -0.12489837408065796, 0.03415625914931297, -0.19752442836761475, 0.10702599585056305, 0.09773280471563339, -0.040238600224256516, -0.25997939705848694, -0.0638410821557045, -0.2744436264038086, -0.016714202240109444, 0.04910673573613167, 0.02774764411151409, 0.1361570507287979, -0.11322934180498123, -0.3733574450016022, 0.12166813015937805, -0.10277722775936127, 0.2294340431690216, -0.034016016870737076, -0.10582515597343445, -0.34218811988830566, -0.23411931097507477, 0.20492686331272125, 0.02498651295900345, 0.04621272534132004, 0.021261105313897133, 0.03081156127154827, -0.02455645240843296, 0.02173934131860733, -0.045548826456069946, 0.04347561299800873, 0.05094435438513756, 0.051656197756528854, 0.041477885097265244, 0.017688997089862823, -0.06282062828540802, -0.01145435031503439, -0.049337346106767654, -0.022473344579339027, -0.12078201025724411, -0.4327186942100525, 0.6220677495002747, 0.1745298057794571, -0.316655695438385, 0.04282241314649582, -0.299591600894928, -0.11366163194179535, 0.4178693890571594, -0.6147497892379761, 0.858009397983551, 0.6468827724456787, 0.038794033229351044, 0.0787646621465683, 0.24263423681259155, -0.6794325113296509, 0.1118660494685173, -0.1688334345817566, 0.19360655546188354, -0.15470536053180695, -0.049341920763254166, 0.12039981037378311, 0.23928804695606232, 0.017438236624002457, 0.061704371124506, 0.3038991093635559, 0.26917320489883423, 0.4338207244873047, -0.31651222705841064, -0.005146210081875324, -0.2112734168767929, -0.17407077550888062, 0.013773542828857899, -0.1147637814283371, 0.1946856677532196, 0.23611916601657867, -0.04395630210638046, 0.2345844954252243, 0.057139817625284195, -0.2058955878019333, -0.31313222646713257, 0.012661376968026161, 0.12189462035894394, -0.11826569586992264, 0.08584900945425034, 0.21481305360794067, 0.12193291634321213, -0.1392514556646347, -0.10547852516174316, 0.01370389573276043, 0.0627887099981308, -0.12984532117843628, 0.010573144070804119, 0.05735116824507713, -0.20426087081432343, -0.03707408532500267, -0.1731840968132019, 0.04077168554067612, -0.1359577178955078, 0.16298699378967285, 0.1317637711763382, -0.025728711858391762, -0.037811730057001114, -0.07974947988986969, 0.028476659208536148, 0.014872431755065918, 0.18834756314754486, -0.012775815092027187, -0.203319251537323, 0.11893705278635025, -0.1759135127067566, 0.2026139199733734, 0.09589613229036331, -0.21999742090702057, -0.059934068471193314, -0.02590872347354889, 0.33149534463882446, 0.05490787699818611, 0.08575877547264099, -0.0706019178032875, 0.21552202105522156, -0.2754001319408417, 0.5187290906906128, -0.22969433665275574, 0.09837308526039124, -0.039469677954912186, -0.17781923711299896, 0.06738347560167313, 0.18417038023471832, 0.050103239715099335, -0.21154630184173584, 0.19171209633350372, 0.08509368449449539, -0.13911010324954987, 0.04185193404555321, -0.02176794223487377, 0.06905311346054077, -0.17700207233428955, -0.05326981097459793, -0.2905735969543457, 0.037891238927841187, -0.21042810380458832, 0.15227317810058594, -0.003138231812044978, 0.005526593886315823, -0.05954430252313614, 0.07063838094472885, 0.26538923382759094, -0.045245539397001266, 0.1671348512172699, 0.3072260916233063, 0.1725916564464569, -0.11848714202642441, -0.17228911817073822, -0.07102029025554657, 0.0748586654663086, 0.19692113995552063, 0.06032700464129448, 0.6455075144767761, -0.3303329050540924, -0.43683043122291565, -0.34340065717697144, 0.10065668076276779, -0.3613831102848053, 0.47517916560173035, -0.36392101645469666, 0.12259887158870697, 0.2016182392835617, -0.023003051057457924, 0.23116371035575867, -0.20152267813682556, -0.1989160180091858, 0.13520272076129913, -0.09898197650909424, 0.04709039628505707, -0.09115222096443176, 0.10993178188800812, -0.062017958611249924, 0.1394929438829422, 0.15395496785640717, -0.12067930400371552, 0.11933335661888123, 0.23702417314052582, -0.10482607781887054, -0.14527760446071625, 0.3133445680141449, -0.08816585689783096, 0.06771886348724365, -0.03198545426130295, -0.0676705464720726, -0.0030374471098184586, 0.07446874678134918, -0.27888962626457214, -0.03006799891591072, -0.0660765990614891, 0.005971087608486414, -0.15953856706619263, -0.025505919009447098, 0.026204053312540054, -0.05398666486144066, 0.1449720561504364, 0.1291230469942093, -0.2868182063102722, 0.04259556159377098, 0.03442530706524849, 0.18598803877830505, -0.22520661354064941, -0.17924776673316956, -0.020689599215984344, -0.10136696696281433, -0.013672136701643467, -0.38007721304893494, 0.31680479645729065, -0.13570234179496765, 0.2644111216068268, -0.26677176356315613, 0.17569246888160706, -0.2518070340156555, 0.004334594588726759, -0.1792793571949005, 0.19466133415699005, -0.19049644470214844, 0.2749583423137665, -0.005155046004801989, 0.12584152817726135, 0.03779279440641403, -0.13949328660964966, 0.03712604567408562, -0.06379367411136627, -0.07049587368965149, 0.13252365589141846, 0.2802814543247223, -0.20653215050697327, -0.042092110961675644, -0.07705091685056686, 0.20847685635089874, -0.06737299263477325, 0.18596500158309937, 0.09985298663377762, -0.10616003721952438, -0.3151685893535614, -0.20783397555351257, 0.0665733590722084, 0.08007535338401794, 0.11067566275596619, -0.23290878534317017, 0.03255271911621094, 0.44998452067375183, -0.46213433146476746, -0.3447018265724182, -0.13214169442653656, 0.11486344039440155, 0.3213479816913605, -0.051335010677576065, -0.1018105074763298, -0.22243914008140564, 0.3388873040676117, -0.3216659128665924, 0.09257937967777252, -0.007159132976084948, -0.12286270409822464, -0.03277798742055893, 0.44665974378585815, 0.300529807806015, -0.20865219831466675, 0.06900909543037415, -0.00048418648657388985, -0.15165556967258453, -0.20534732937812805, -0.2777465283870697, 0.07025370001792908, 0.0038831145502626896, 0.05261598899960518, 0.02971591055393219, 0.20801615715026855, -0.22031152248382568, 0.10160110890865326, 0.15197184681892395, -0.10205097496509552, 0.1236615777015686, 0.004882356151938438, 0.3641318082809448, -0.1720459908246994, -0.348625510931015, -0.1005459651350975, -0.17465825378894806, -0.22419671714305878, -0.19298431277275085, 0.2362367808818817, 0.3534364402294159, 0.14046315848827362, 0.22528976202011108, -0.22640098631381989, 0.17700237035751343, 0.09140372276306152, -0.33345967531204224, -0.07405491173267365, 0.19887785613536835, -0.12202701717615128, -0.1978657990694046, -0.17686501145362854, -0.1433546245098114, -0.25082626938819885, -0.21325109899044037, 0.19286078214645386, 0.1737879514694214, 0.2231646329164505, 0.3640356957912445, -0.23075467348098755, -0.016714395955204964, 0.13854755461215973, -0.10935395956039429, 0.055501241236925125, 0.0007615368813276291, 0.07643620669841766, 0.0497056245803833, 0.002613469958305359, 0.07299808412790298, 0.026663506403565407, 0.0011217494029551744, -0.06444945931434631, -0.072245292365551, 0.04696648567914963, 0.018002277240157127, 0.08433415740728378, 0.04733068123459816, 0.0352778285741806, -0.01898774318397045, 0.02952110581099987, -0.16793745756149292, 0.030567649751901627, 0.050398822873830795, -0.005776209756731987, -0.035823702812194824, 0.02587657980620861, -0.17084121704101562, -0.026940369978547096, -0.2643961012363434, 0.09372134506702423, 0.1408529132604599, 0.032904524356126785, -0.40297314524650574, -0.16391077637672424, 0.2888951301574707, 0.007720638997852802, 0.16352948546409607, 0.1402650773525238, -0.2361583560705185, -0.15125204622745514, 0.10517921298742294, -0.027210136875510216, -0.09565332531929016, -0.14303316175937653, -0.08251022547483444, 0.034854549914598465, 0.07298747450113297, 0.07983420789241791, -0.14344151318073273, -0.2636939585208893, -0.28641995787620544, 0.23622405529022217, -0.09146863222122192, -0.16281460225582123, 0.035971082746982574, -0.192818284034729, -0.06247304752469063, -0.08531253784894943, -0.007748456206172705, 0.0987052321434021, 0.08658497035503387, -0.1720789223909378, -0.048861537128686905, -0.008906682953238487, 0.052132315933704376, 0.1777684986591339, 0.010213041678071022, 0.22662611305713654, 0.06307153403759003, 0.2210468202829361, 0.13848723471164703, -0.18204672634601593, -0.16150234639644623, -0.07272423803806305, -0.2397436946630478, 0.014609402976930141, -0.061691176146268845, 0.09280230849981308, 0.003541642567142844, 0.1566365659236908, -0.11011859774589539, 0.27643197774887085, 0.08656187355518341, 0.026648301631212234, 0.02330896072089672, -0.320944607257843, 0.23153534531593323, -0.17581970989704132, 0.06959590315818787, 0.2511422336101532, -0.2257843166589737, -0.028163842856884003, 0.15722833573818207, -0.18517206609249115, -0.09837110340595245, 0.13069821894168854, -0.20190587639808655, -0.15820102393627167, 0.05334814637899399, 0.16586799919605255, 0.04748513549566269, -0.26218223571777344, -0.00013120663061272353, -0.012711239978671074, -0.008215058594942093, -0.28019386529922485, -0.095248281955719, 0.195730522274971, -0.16274382174015045, 0.033529579639434814, 0.1372620016336441, 0.0572943352162838, 0.1343604475259781, 0.0374174490571022, -0.006492177955806255, -0.27419403195381165, -0.20004862546920776, -0.049101606011390686, 0.4025721549987793, 0.1744927167892456, -0.3052104413509369, 0.12624558806419373, 0.19567732512950897, 0.12198886275291443, -0.237324059009552, -0.01779855042695999, 0.06157007813453674, 0.045406442135572433, 0.06403364986181259, 0.1011480987071991, 0.04779157042503357, -0.04373627156019211, -0.028753913938999176, -0.029416276142001152, -0.08209758251905441, -0.023480607196688652, 0.21014797687530518, -0.10511044412851334, 0.036752644926309586, -0.11686530709266663, -0.14058652520179749, 0.1301083266735077, 0.11262907832860947, -0.05250053107738495, 0.19566169381141663, 0.07018741965293884, 0.09188810735940933, 0.281217485666275, -0.11713780462741852, -0.09503550827503204, 0.054539524018764496, -0.22761379182338715, -0.05967444181442261, -0.08106015622615814, -0.060892172157764435, -0.040601592510938644, 0.12546244263648987, 0.22403989732265472, -0.1445479542016983, -0.05907812714576721, -0.14034906029701233, -0.17667068541049957, -0.07244596630334854, 0.20407997071743011, 0.17685186862945557, 0.08617787808179855, 0.21526116132736206, -0.10554274171590805, -0.24774044752120972, 0.000516955740749836, -0.14679333567619324, -0.4005011320114136, -0.13764677941799164, 0.11081616580486298, 0.21961309015750885, 0.008343840949237347, 0.2785645127296448, 0.15924109518527985, 0.3247506618499756, 0.08669770509004593, 0.0830187276005745, 0.14878836274147034, -0.08570744097232819, 0.053608544170856476, 0.43895313143730164, 0.19078046083450317, -0.08043496310710907, -0.17789719998836517, 0.15933220088481903, 0.13595135509967804, -0.16565895080566406, -0.014543076045811176, 0.01298298966139555, -0.15691591799259186, 0.37384629249572754, 0.2617223560810089, -0.14770610630512238, 0.3368120491504669, 0.27757909893989563, 0.16708199679851532, 0.19315961003303528, -0.22734346985816956, -0.08693420886993408, 0.10379833728075027, -0.09542322158813477, -0.19755661487579346, 0.23547135293483734, -0.026726989075541496, 0.06110823526978493, 0.1056566834449768, -0.14406751096248627, 0.3363727033138275, -0.010914364829659462, 0.04096761718392372, -0.04889718443155289, -0.04217802733182907, -0.012763816863298416, -0.2722988426685333, 0.27508699893951416, -0.03174949809908867, 0.09339173883199692, -0.10515336692333221, -0.20596133172512054, 0.03841903805732727, -0.07389292120933533, -0.1097908690571785, -0.19261591136455536, 0.08945418894290924, 0.1570366472005844, -0.014557141810655594, -0.13291099667549133, 0.007702485658228397, -0.054899223148822784, -0.09146320074796677, -0.013074485585093498, -0.13019824028015137, 0.20762594044208527, -0.23482808470726013, -0.2126789689064026, -0.08122460544109344, 0.13898995518684387, 0.10121972858905792, 0.27845147252082825, -0.21921318769454956, 0.006268403027206659, 0.08459855616092682, 0.030029160901904106, -0.13980738818645477, -0.04409515857696533, 0.0014390656724572182, -0.3497928977012634, -0.012025154195725918, -0.30513107776641846, -0.26310643553733826, 0.06918004900217056, -0.036336421966552734, 0.034897856414318085, -0.04896410554647446, 0.27297526597976685, -0.013703054748475552, -0.04282258823513985, -0.11917241662740707, -0.04935743287205696, 0.0871991217136383, -0.2498021274805069, 0.11548613011837006, 0.2650074362754822, 0.03045850805938244, -0.10121733695268631, -0.07248476147651672, -0.23193621635437012, 0.09213795512914658, -0.15726560354232788, -0.006715869531035423, -0.04383452609181404, -0.3342934548854828, 0.023712653666734695, -0.1412649303674698, -0.004521962720900774, 0.16856810450553894, 0.08675223588943481, -0.14158113300800323, 0.11613499373197556, -0.047780755907297134, 0.12129966169595718, -0.054740823805332184, -0.20271365344524384, -0.014029189944267273, 0.16557444632053375, 0.1340750902891159, 0.036449674516916275, -0.06436445564031601, 0.0252375528216362, 0.10053415596485138, 0.12552762031555176, 0.029883958399295807, 0.010629473254084587, 0.049023643136024475, -0.02605235017836094, -0.04307132586836815, -0.06982020288705826, 0.0638461634516716, -0.13509756326675415, 0.07617712020874023, -0.05180322378873825, -0.05271345004439354, 0.2187855839729309, 0.12392419576644897, 0.0726257860660553, -0.04970701411366463, -0.2582378089427948, 0.040214769542217255, -0.025928374379873276, 0.13607577979564667, 0.37203744053840637, 0.12110007554292679, -0.10161381214857101, -0.2522200047969818, -0.1173897311091423, -0.08080700039863586, 0.051195137202739716, -0.10460443049669266, -0.43507862091064453, -0.019724810495972633, -0.26964500546455383, -0.4557393193244934, 0.017777172848582268, -0.12777405977249146, 0.006278454791754484, -0.17466433346271515, -0.036165881901979446, -0.0010275141103193164, -0.17884139716625214, 0.05759125202894211, -0.04698833450675011, -0.1178751215338707, 0.13360433280467987, 0.22683659195899963, -0.13321378827095032, -0.021381715312600136, -0.02565290406346321, 0.14254100620746613, 0.09824948757886887, -0.01062904391437769, 0.0014008635189384222, 0.10043884068727493, -0.07599717378616333, 0.009996981360018253, -0.14724406599998474, 0.09719010442495346, 0.1701793521642685, 0.13224147260189056, 0.17664681375026703, -0.033834610134363174, 0.11726018041372299, 0.06022106111049652, 0.044474728405475616, -0.21509893238544464, 0.22598420083522797, -0.09348039329051971, 0.3136787414550781, -0.21749264001846313, -0.3436850905418396, 0.1358853429555893, 0.14943991601467133, 0.21264031529426575, -0.007130227982997894, -0.1323748379945755, 0.014382819645106792, 0.19412831962108612, -0.24867761135101318, -0.21024778485298157, 0.2919650375843048, 0.12001148611307144, -0.2563278377056122, -0.01615554466843605, -0.021867267787456512, -0.0334089919924736, -0.04521281644701958, 0.1055631935596466, 0.17015159130096436, -0.17336179316043854, 0.2198365330696106, -0.12373413890600204, -0.18471112847328186, -0.2879609763622284, -0.23699519038200378, -0.3701302707195282, -0.2708582878112793, -0.08295565843582153, -0.12468504160642624, -0.1297614872455597, 0.14935088157653809, 0.028930552303791046, -0.002131776185706258, -0.09237556159496307, 0.08560000360012054, -0.004030019510537386, -0.20482651889324188, -0.0648626834154129, -0.015076298266649246, 0.07559303194284439, -0.2077322006225586, 0.1342351883649826, 0.16051991283893585, 0.17531707882881165, 0.0007106356788426638, -0.21279321610927582, 0.17638562619686127, -0.24323035776615143, -0.2759709656238556, -0.05101864039897919, -0.056180503219366074, 0.06152894347906113, -0.052474867552518845, 0.0008517471724189818, 0.14348742365837097, -0.26954522728919983, -0.044582851231098175, 0.03055003471672535, 0.08877971768379211, -0.08859211206436157, -0.11633026599884033, -0.023873118683695793, -0.10047860443592072, -0.15665429830551147, 0.0035597572568804026, -0.11660837382078171, 0.0915125384926796, 0.016309704631567, 0.06635228544473648, 0.21918413043022156, -0.16879287362098694, -0.14443530142307281, -0.046798620373010635, 0.15644408762454987, 0.21363355219364166, 0.3438747823238373, -0.08741385489702225, 0.06255003064870834, -0.1505623459815979, -0.030233781784772873, -0.06932743638753891, 0.1127932146191597, -0.20821312069892883, -0.14441759884357452, 0.1748678982257843, -0.08808841556310654, 0.23356841504573822, -0.010535120032727718, 0.10121702402830124, -0.2759082615375519, -0.266194224357605, -0.1428331434726715, 0.21178026497364044, 0.04441385343670845, 0.060697708278894424, 0.14382719993591309, 0.19943471252918243, 0.032861609011888504, 0.035827551037073135, -0.16712835431098938, 0.10824687778949738, -0.21778519451618195, 0.26552003622055054, 0.11862610280513763, 0.08029685169458389, 0.22792848944664001, -0.16266964375972748, 0.027035968378186226, -0.05606988072395325, 0.123354971408844, 0.034984029829502106, 0.3040553331375122, -0.01202952116727829, 0.12498530745506287, -0.19066669046878815, 0.0803091898560524, -0.12099430710077286, 0.0872899517416954, 0.24384106695652008, 0.08235696703195572, 0.06134561076760292, 0.05219733342528343, -0.02124796435236931, -0.3758056163787842, -0.09902071952819824, 0.15096695721149445, -0.19653120636940002, -0.2929711639881134, -0.16686254739761353, -0.006102303974330425, -0.1990097016096115, 0.21457116305828094, 0.08258956670761108, -0.10572050511837006, -0.04048004746437073, -0.3170252740383148, -0.026843806728720665, -0.11215822398662567, -0.056316178292036057, 0.4675840437412262, 0.07764741033315659, -0.0754096508026123, -0.03657954931259155, 0.0051275393925607204, 0.10057571530342102, 0.13956695795059204, 0.06880680471658707, -0.059666506946086884, -0.2603485584259033, -0.08871890604496002, -0.14894625544548035, -0.04436188191175461, 0.12359311431646347, 0.05513059347867966, -0.13857582211494446, 0.4178091287612915, -0.12302049994468689, -0.807655394077301, -0.14912109076976776, -0.010169186629354954, 0.41106030344963074, 0.1022782027721405, 0.06434489786624908, -0.13187527656555176, 0.10632973164319992, 0.041557591408491135, 0.05642900988459587, 0.15578626096248627, 0.16593192517757416, -0.25957536697387695, 0.23474474251270294, 0.2505488097667694, -0.6921936273574829, 0.07906297594308853, -0.10171571373939514, -0.1327885240316391, 0.2906726598739624, 0.04925220459699631, -0.10566993057727814, -0.10165010392665863, 0.1125561073422432, 0.44956091046333313, 0.03270390257239342, 0.1449624001979828, 0.7788458466529846, -0.16467338800430298, -0.09581448137760162, -0.12757544219493866, 0.20116764307022095, 0.30268165469169617, -0.04153503477573395, 0.12767533957958221, 0.24702996015548706, 0.1334618777036667, -0.06965375691652298, -0.12513908743858337, 0.1955651193857193, -0.1867094188928604, -0.17257504165172577, -0.08899170905351639, -0.01438641082495451, -0.17731110751628876, -0.16959787905216217, 0.03444797918200493, -0.1882764995098114, -0.11183400452136993, 0.09203645586967468, -0.05661004036664963, 0.12892797589302063, -0.0739002451300621, -0.24796682596206665, 0.15255074203014374, -0.04351676627993584, 0.11477401107549667, 0.3131699562072754, 0.25623393058776855, -0.17289303243160248, 0.09159467369318008, -0.010733661241829395, -0.051532480865716934, -0.0662325993180275, 0.004187857732176781, 0.1619015485048294, 0.055687058717012405, 0.12329466640949249, 0.06662490218877792, 0.45456618070602417, -0.010095842182636261, -0.1486634910106659, -0.07789009809494019, 0.0802764743566513, -0.16421563923358917, 0.07413508743047714, 0.02832774817943573, 0.23948177695274353, -0.13790947198867798, -0.01760425604879856, -0.232919380068779, -0.014285029843449593, 0.05828006938099861, -0.21211254596710205, -0.032387956976890564, -0.12472409754991531, 0.09739372134208679, -0.3515772521495819, 0.24043893814086914, 0.05763939395546913, 0.1445019245147705, 0.21557077765464783, -0.14538753032684326, 0.03724689409136772, -0.05199960991740227, 0.0032488845754414797, -0.1326238065958023, 0.2306956797838211, -0.16713540256023407, 0.1534832864999771, -0.20837797224521637, 0.350028932094574, -0.2764863669872284, 0.023353425785899162, 0.08695017546415329, -0.21269899606704712, -0.1672714799642563, 0.0693368911743164, 0.058035168796777725, -0.04114628955721855, 0.21173742413520813, -0.07222802937030792, 0.007001794409006834, 0.09680626541376114, -0.10146425664424896, 0.026654614135622978, -0.14623069763183594, 0.17661216855049133, 0.03524254634976387, -0.1388598531484604, 0.0042866370640695095, -0.057234205305576324, 0.27998876571655273, -0.19645744562149048, 0.011541764251887798, -0.1270168274641037, 0.06170155107975006, 0.16801400482654572, 0.07946762442588806, 0.06282547116279602, 0.14708301424980164, 0.06827531009912491, 0.06879423558712006, 0.007302349433302879, -0.027878273278474808, 0.10926807671785355, 0.3034963309764862, 0.05858602002263069, 0.18493548035621643, 0.11131994426250458, 0.11667967587709427, -0.014641907066106796, -0.11879375576972961, 0.055166274309158325, 0.21406546235084534, -0.07553236931562424, -0.016363289207220078, -0.2553175985813141, -0.01964244805276394, -0.17857599258422852, -0.04071711748838425, -0.05650751665234566, -0.0962727963924408, 0.17062164843082428, 0.33575505018234253, -0.27521368861198425, -0.08247999846935272, 0.28904759883880615, -0.13740038871765137, 0.08483177423477173, -0.02032925747334957, -0.06322524696588516, -0.15551480650901794, -0.0732206180691719, -0.1394106149673462, 0.032894317060709, 0.02614901401102543, -0.2651421129703522, -0.08093595504760742, 0.07210484892129898, 0.07847575098276138, 0.11947762221097946, -0.00697526428848505, 0.292805552482605, 0.2542168200016022, -0.21493737399578094, 0.0002525649906601757, 0.010718993842601776, -0.10346551984548569, -0.1094558984041214, 0.08793759346008301, -0.11310858279466629, 0.07137177884578705, -0.006891832686960697, -0.19010312855243683, -0.17628154158592224, 0.1219576746225357, -0.040214285254478455, -0.12400632351636887, 0.16964592039585114, -0.1520802527666092, 0.10429275780916214, 0.12166017293930054, -0.19126050174236298, 0.015097834169864655, 0.03547623008489609, -0.200015127658844, 0.2107422798871994, -0.08040052652359009, -0.08753059804439545, 0.004200087394565344, -0.2038283497095108, -0.26538872718811035, 0.0926116481423378, -0.02643638662993908, 0.029210243374109268, -0.108637735247612, -0.09912007302045822, 0.0030694406013935804, 0.08738130331039429, -0.07992398738861084, 0.0520588643848896, 0.06843125075101852, -0.17132341861724854, -0.29744580388069153, 0.07701192796230316, -0.1284068524837494, 0.013823874294757843, 0.14360429346561432, 0.0033976139966398478, 0.10063466429710388, 0.2719762921333313, 0.18062414228916168, -0.013576880097389221, -0.02140122652053833, -0.0943860113620758, 0.003265723818913102, -0.3446919322013855, -0.06378732621669769, -0.017971618101000786, 0.13221290707588196, 0.03192269429564476, 0.09383320808410645, 0.3700732886791229, 0.2759898900985718, -0.19480346143245697, 0.029811732470989227, 0.09172927588224411, -0.0038664776366204023, 0.15455681085586548, -0.27472251653671265, 0.04947451874613762, 0.2572963833808899, -0.20657940208911896, 0.03883910924196243, 0.09332844614982605, -0.11245088279247284, -0.10424435883760452, -0.16013066470623016, 1.0669864423107356e-05, -0.1740875393152237, 0.1964053511619568, 0.035357516258955, -0.05346151813864708, -0.19583790004253387, 0.19184216856956482, -0.18420810997486115, 0.0009627937106415629, -0.04783628135919571, -0.45883697271347046, -0.26568201184272766, 0.20091436803340912, 0.2441224753856659, -0.0580538809299469, 0.07438957691192627, 0.3467821776866913, -0.1744888871908188, 0.058520905673503876, 0.024127623066306114, -0.02521372027695179, 0.09136505424976349, -0.03968852758407593, 0.06418309360742569, 0.03782344609498978, -0.0002492806233931333, 0.0036665976513177156, 0.01043803058564663, 0.08387889713048935, 0.00931229256093502, -0.02494618482887745, -0.01984749734401703, 0.03639926388859749, -0.02147156558930874, 0.019180117174983025, 0.6148004531860352, 0.3004407286643982, 0.43873751163482666, -1.0025572776794434, -0.32850921154022217, 0.13188496232032776, 0.22747614979743958, 0.38997703790664673, 0.3299204409122467, 0.20986570417881012, -0.34613487124443054, 0.3817501664161682, -0.2699805498123169, -0.5620452165603638, 0.01602080836892128, -0.12378010898828506, -0.0832604318857193, -0.1762581318616867, 0.1381693333387375, -0.010124419815838337, 0.12844733893871307, 0.14383383095264435, 0.06249468773603439, -0.17082525789737701, -0.14609107375144958, 0.12363550066947937, -0.14616282284259796, -0.0258707907050848, 0.06934237480163574, 0.023494191467761993, 0.14642368257045746, -0.03874526545405388, -0.2194397747516632, -0.20397484302520752, 0.44324377179145813, 0.01567191630601883, -0.08888335525989532, 0.09433607012033463, 0.19392436742782593, -0.19817349314689636, -0.4424968361854553, 0.17004428803920746, 0.10251177102327347, 0.17695853114128113, 0.024759357795119286, 0.20489290356636047, -0.05310092866420746, 0.01718873158097267, 0.09659237414598465, 0.03840396925806999, -0.15293285250663757, 0.03230183199048042, -0.021773388609290123, 0.05386847257614136, -0.08299097418785095, 0.008164478465914726, 0.0933946967124939, -0.158662348985672, 0.020814424380660057, -0.14290736615657806, 0.30414488911628723, 0.03567010909318924, 0.09136839956045151, 0.06207321956753731, -0.29391273856163025, -0.05717065557837486, -0.18808822333812714, 0.2121247798204422, 0.1588682383298874, -0.01936497539281845, 0.1656469851732254, 0.17419104278087616, -0.08842352032661438, -0.2701520323753357, 0.030497072264552116, -0.030275020748376846, 0.012275701388716698, 0.056328609585762024, -0.03057541511952877, 0.03589247912168503, -0.0030667115934193134, -0.10779374837875366, -0.09749896079301834, 0.1258445531129837, 0.13757772743701935, -0.021623361855745316, 0.25556403398513794, -0.03366019204258919, -0.2746106684207916, 0.4244931936264038, 0.012404613196849823, 0.09252091497182846, -0.07377543300390244, -0.2784770727157593, -0.26062750816345215, -0.3864150941371918, -0.3413327634334564, 0.24500058591365814, 0.037718355655670166, 0.07307568937540054, -0.16926166415214539, 0.37402501702308655, 0.07695581763982773, -0.15156033635139465, -0.13977961242198944, 0.11812473088502884, -0.026688342913985252, 0.2092171609401703, -0.007386046461760998, 0.2800372838973999, -0.15213681757450104, -0.14654208719730377, -0.10827656090259552, 0.07648053765296936, 0.17360159754753113, -0.1167554259300232, -0.26639324426651, -0.15973280370235443, 0.20676395297050476, -0.013848130591213703, -0.24728097021579742, 0.2696100175380707, 0.4015882611274719, -0.04889382794499397, 0.0693306177854538, -0.0815788060426712, -0.09142545610666275, 0.21399487555027008, 0.002416551811620593, 0.05773572623729706, -0.08298318833112717, -0.03264704719185829, 0.36119380593299866, -0.2865574359893799, -0.24982504546642303, 0.015930743888020515, -0.03370669484138489, 0.1024823859333992, -0.0843442752957344, -0.06911573559045792, -0.18318888545036316, -0.11661715060472488, 0.18169927597045898, 0.2013877034187317, -0.10061243176460266, 0.2243078351020813, 0.2010595202445984, -0.06574385613203049, 0.09841934591531754, 0.19258596003055573, -0.1539108008146286, -0.283140629529953, -0.07091279327869415, 0.2905459403991699, -0.07873720675706863, 0.04757257178425789, 0.33373817801475525, -0.0037772420328110456, -0.035964205861091614, -0.0014635552652180195, 0.01640371046960354, 0.20080788433551788, 0.16163374483585358, 0.2695249617099762, -0.28510311245918274, 0.17858348786830902, -0.24475963413715363, 0.05896914377808571, -0.2464120090007782, 0.0984053835272789, 0.16505730152130127, 0.020616954192519188, 0.25908219814300537, 0.004548322409391403, 0.11634897440671921, 0.02010873146355152, -0.2650379240512848, -0.045791175216436386, -0.25547775626182556, -0.1668950319290161, -0.09491008520126343, -0.015932155773043633, 0.20734472572803497, -0.14649072289466858, 0.12305495887994766, -0.02556050755083561, -0.009530741721391678, -0.00710366340354085, -0.19730179011821747, 0.1842728704214096, -0.04884202778339386, -0.1853754073381424, 0.13868126273155212, 0.04311634227633476, -0.08711428940296173, 0.3281401991844177, -0.11608446389436722, -0.23322728276252747, 0.16032031178474426, 0.2170323133468628, -0.04446947202086449, 0.04301968961954117, 0.330679327249527, 0.09010019153356552, 0.09531732648611069, 0.3263872265815735, -0.05712159350514412, -0.09339386969804764, 0.4205508828163147, 0.46716979146003723, 0.1401595175266266, 0.2746025025844574, 0.1032269224524498, -0.1675809919834137, -0.25519534945487976, -0.07954882085323334, 0.3271067440509796, -0.039025064557790756, 0.052009277045726776, -0.5420355200767517, 0.2959786355495453, -0.13641028106212616, 0.42710456252098083, -0.06831657141447067, -0.14217157661914825, -0.012623579241335392, -0.09372986853122711, 0.12933866679668427, 0.2620711624622345, -0.07822708785533905, 0.15345442295074463, 0.11901741474866867, 0.09910592436790466, 0.4135625660419464, 0.06436023861169815, -0.3304738998413086, -0.3186585307121277, 0.0004240171692799777, -0.2338472157716751, 0.15909971296787262, 0.2622537910938263, -0.16466151177883148, 0.17022031545639038, 0.17760390043258667, 0.06978660076856613, -0.16450358927249908, -0.12382472306489944, 0.1730213463306427, -0.13075637817382812, 0.10372013598680496, -0.2958287298679352, -0.04441099613904953, 0.07501881569623947, -0.1520034670829773, 0.08489616215229034, 0.06641765683889389, -0.1089339405298233, -0.03432150185108185, -0.1653694063425064, -0.10949699580669403, -0.22910553216934204, -0.3142462372779846, -0.0053258854895830154, -0.1326589435338974, -0.10448811948299408, 0.3156927227973938, -0.17575544118881226, 0.1252112239599228, 0.048431843519210815, 0.09701407700777054, 0.07227186113595963, -0.0904746875166893, -0.07288238406181335, -0.007290179841220379, -0.013343158178031445, -0.017499448731541634, 0.01020247396081686, -0.008701512590050697, -0.004254370927810669, 0.0024095068220049143, -0.010098480619490147, 0.061817340552806854, 0.05136711522936821, 0.010645079426467419, -0.01046302542090416, -0.07004202157258987, -0.04847940057516098, 0.01928703300654888, 0.10577801614999771, -0.2125958502292633, 0.13877423107624054, -0.038654960691928864, 0.16507545113563538, -0.13417208194732666, -0.04563158378005028, 0.11141654849052429, -0.12005412578582764, -0.23617738485336304, -0.036862727254629135, 0.27133721113204956, 0.3000262379646301, 0.004032299853861332, -0.16325882077217102, 0.1375456601381302, -0.011606660671532154, -0.1321461945772171, 0.4480312466621399, 0.03383829444646835, -0.1821250319480896, 0.01224023662507534, -0.02840852551162243, 0.0023181787692010403, 0.1277981400489807, -0.2409369945526123, 0.356529176235199, 0.1398112028837204, 0.16243258118629456, 0.20406056940555573, 0.23045869171619415, -0.1560063660144806, -0.0581219382584095, 0.4405650794506073, -0.25417059659957886, -0.16243767738342285, 0.26856550574302673, -0.21604250371456146, -0.07150021195411682, 0.12788435816764832, -0.4188707768917084, 0.4069935977458954, -0.20765966176986694, -0.06183671951293945, 0.2777535319328308, -0.5966333150863647, -0.1484110951423645, -0.04805021733045578, -0.07029300928115845, 0.30687224864959717, 0.06158885732293129, 0.109829381108284, -0.07336301356554031, 0.427386075258255, -0.02397189475595951, -0.2910213768482208, 0.10241898894309998, -0.08824121206998825, 0.23042869567871094, -0.1701841503381729, -0.012270305305719376, -0.0003510031965561211, 0.1347217857837677, 0.015892164781689644, -0.16184045374393463, 0.12287702411413193, -0.15522396564483643, -0.05848201364278793, 0.09571665525436401, -0.08274746686220169, -0.11120463907718658, -0.27275094389915466, -0.010805877856910229, 0.20858021080493927, 0.18387363851070404, 0.016479481011629105, 0.07519883662462234, 0.24905212223529816, 0.06947970390319824, -0.2581447660923004, -0.15230661630630493, -0.12608633935451508, -0.13889117538928986, 0.07517972588539124, -0.005646739155054092, -0.11404386162757874, 0.1193072646856308, 0.15778660774230957, 0.21201565861701965, 0.017484234645962715, 0.13235369324684143, -0.3669648766517639, 0.04294095188379288, -0.23733732104301453, 0.013586988672614098, -0.04387257993221283, 0.13932634890079498, -0.1615111380815506, 0.012993965297937393, -0.012970319017767906, 0.19229307770729065, -0.01863318495452404, -0.1511257290840149, 0.14711134135723114, 0.02836710400879383, -0.11365149170160294, 0.19279006123542786, -0.04769565165042877, -0.13500703871250153, -0.1291380226612091, -0.1405777931213379, -0.07155600935220718, -0.039009496569633484, 0.1711501181125641, -0.19519078731536865, -0.10267296433448792, -0.2107521891593933, -0.1792539358139038, 0.03146848827600479, -0.011208846233785152, 0.1447906643152237, 0.09440667927265167, -0.011097143404185772, 0.182554230093956, -0.05984177067875862, -0.038993317633867264, 0.0006026780465617776, 0.4550551772117615, 0.03476083278656006, -0.12814174592494965, 0.16010160744190216, -0.037318456918001175, 0.1682484894990921, 0.010107777081429958, 0.24351391196250916, 0.19454772770404816, -0.006323270034044981, 0.03370663896203041, -0.1978013515472412, 0.19683189690113068, 0.11836510896682739, 0.04323336482048035, -0.1043856292963028, 0.060797691345214844, 0.005505672190338373, -0.1529921293258667, 0.0550907701253891, 0.17963513731956482, 0.11560525745153427, -0.3765198290348053, -0.08925711363554001, 0.3060067296028137, 0.05333460122346878, 0.15819913148880005, -0.125157430768013, 0.030210312455892563, 0.006390583235770464, 0.12388599663972855, -0.02234962023794651, -0.1191193163394928, 0.002665614476427436, 0.04302319884300232, 0.036526456475257874, 0.026258764788508415, -0.07243026793003082, 0.13955454528331757, 0.1128275990486145, 0.07335659861564636, 0.10058088600635529, -0.06445644050836563, 0.04393136128783226, 0.13038848340511322, -0.031981680542230606, -0.07180219888687134, -0.10552884638309479, 0.2705483138561249, 0.050732649862766266, -0.029598841443657875, -0.0981801450252533, -0.4444156587123871, 0.04485897347331047, 0.05181734636425972, 0.03134400025010109, -0.3334325850009918, 0.07301513105630875, 0.040168460458517075, 0.038176827132701874, 0.19607698917388916, -0.1850484013557434, 0.35095906257629395, -0.07728133350610733, -0.08023501187562943, -0.11523816734552383, 0.3651435375213623, -0.09316795319318771, 0.04561547935009003, -0.3816980719566345, 0.2262885570526123, 0.26952317357063293, -0.23532144725322723, -0.009224300272762775, -0.2812251150608063, 0.05332246050238609, 0.3248770236968994, 0.05553962662816048, 0.21397152543067932, -0.10794764012098312, 0.15183690190315247, 0.009346013888716698, -0.18430888652801514, -0.18933215737342834, 0.06517842411994934, 0.13582980632781982, -0.07919417321681976, 0.11331216990947723, -0.09374595433473587, -0.05894322693347931, -0.03563231602311134, 0.39144864678382874, -0.11838428676128387, -0.2027583122253418, 0.14039672911167145, -0.10330988466739655, -0.15569010376930237, 0.07750342786312103, -0.312002569437027, 0.2338385283946991, 0.2564792037010193, -0.0453508161008358, 0.18644294142723083, -0.08720739930868149, -0.32772672176361084, 0.001629756879992783, -0.1406617909669876, 0.3719255030155182, -0.045935243368148804, -0.01495926734060049, 0.25729137659072876, 0.2211427539587021, 0.0035421322099864483, -0.2265927493572235, -0.06476935744285583, -0.1344812661409378, -0.18554243445396423, 0.09471753984689713, 0.0911107212305069, 0.04364994540810585, 0.033679377287626266, 0.031607627868652344, -0.21501174569129944, 0.0024762656539678574, 0.07927443087100983, 0.1681274026632309, -0.08286522328853607, -0.10878751426935196, 0.2012525200843811, 0.03326430916786194, -0.33044198155403137, 0.0061407312750816345, 0.08887671679258347, -0.313355028629303, -0.01726774498820305, 0.23464708030223846, 0.018845049664378166, -0.13886336982250214, 0.015508929267525673, -0.18366585671901703, -0.1411006897687912, 0.08408933132886887, -0.12263047695159912, -0.061168085783720016, 0.3780241310596466, -0.12201976031064987, -0.14256829023361206, 0.18704412877559662, -0.009329439140856266, 0.03334658220410347, -0.10790374875068665, -0.054499562829732895, -0.049949612468481064, 0.35505908727645874, -0.06871097534894943, -0.024459661915898323, 0.33424848318099976, -0.005719924345612526, -0.05809615179896355, 0.1775890439748764, -0.03526615351438522, -0.1902136355638504, 0.1814771294593811, 0.3810773193836212, -0.12310183048248291, 0.05495605245232582, 0.1296856701374054, -0.042372167110443115, -0.09975636750459671, 0.013322578743100166, -0.2383047640323639, 0.002985448809340596, 0.2874253988265991, -0.06951580941677094, 